1399 100
rubber -0.15966748 -0.048874136 -0.08765397 0.08318589 -0.016196355 0.19611777 -0.10413281 0.1802568 -0.3016159 0.009712973 0.14343943 0.15399052 -0.08661532 -0.025157856 -0.08870266 -0.14219299 0.14966154 -0.15855768 0.13447836 0.06119843 -0.21258374 -0.07416674 -0.18851504 -0.052515276 0.110620245 0.12677635 -0.09542829 -0.08145489 0.15887286 -0.11719719 -0.1928707 -0.018399563 -0.034533463 -0.081739046 -0.038334377 0.03683874 0.011146309 -0.033275545 -0.25033465 0.12345133 0.13339002 -0.21085475 -0.11549261 0.24268004 0.08989756 -0.099317655 0.0443998 0.0109433215 0.07572264 0.0549653 -0.18188359 0.119433045 0.1733822 -0.37861234 -0.020379698 0.0140512325 0.070985906 -0.011599027 -0.0398962 -0.01909463 -0.13356453 0.07407243 -0.022190098 -0.30915475 -0.024145693 -0.14595667 0.10409879 0.08951662 0.06736775 0.12515424 -0.0645935 -0.026513502 -0.08819797 0.26157022 0.056027282 0.1629506 0.17845179 -0.114623554 0.095179215 -0.13821515 0.20463133 0.15089203 0.0702837 0.08338164 -0.013479304 0.04444133 0.18934034 -0.18248442 0.28398025 -0.15874007 -0.057775747 0.003351567 0.044653174 -0.12046875 0.12410326 -0.06474356 0.033833437 0.05934328 0.022552429 -0.31270885
n't -0.13983557 -0.043964077 -0.095582105 0.13710535 -0.008509008 0.16842678 -0.1228303 0.14821813 -0.31083873 0.027640857 0.116007455 0.17375499 -0.09008841 -0.0157248 -0.12419114 -0.1702089 0.14761977 -0.16649559 0.18738413 0.014336616 -0.18344346 -0.039202895 -0.17035711 -0.054595493 0.10161834 0.092007145 -0.07158842 -0.09327755 0.1431992 -0.15352772 -0.18679795 -0.046871006 -0.03601558 -0.09112449 -0.046110883 0.025282266 0.0112693515 -0.08076973 -0.25824523 0.14025816 0.074823335 -0.16632232 -0.12884511 0.26378042 0.052355897 -0.12742741 0.0787574 0.01571461 0.095371395 0.09026264 -0.1654543 0.115057096 0.13574597 -0.39774236 0.041074667 0.035286076 0.060145307 -0.011883506 -0.034935076 -0.015792925 -0.09870997 0.061564643 -0.058375325 -0.30346513 -0.041088056 -0.11449048 0.12129588 0.07785691 0.06976006 0.110528365 -0.06855515 -0.0005460687 -0.09305042 0.22532658 0.046677258 0.14974983 0.17851275 -0.15717083 0.086956955 -0.15004142 0.25471553 0.12916516 0.04476932 0.060625963 -0.027156584 0.0008508643 0.15655337 -0.14708659 0.28242388 -0.15577129 -0.03125191 -0.021222912 0.03415309 -0.14790618 0.120147854 -0.06614591 0.051368948 0.029069392 0.006655271 -0.27752867
good -0.16333626 -0.004047899 -0.043806285 0.06290327 0.056877006 0.18112546 -0.008863592 0.16955705 -0.29464033 0.02405946 0.16232267 0.15221524 -0.045424644 -0.03462951 -0.040592533 -0.10543419 0.12554334 -0.17855948 0.14874904 0.050760623 -0.20683154 -0.048352305 -0.197751 -0.022583669 0.08463562 0.15191792 -0.14265458 -0.109816864 0.1451015 -0.09886063 -0.18715572 -0.015291168 -0.073379785 -0.098196745 -0.0059286864 0.017332066 0.03441838 -0.028740028 -0.23978026 0.13546251 0.10254508 -0.17377442 -0.14962049 0.24784224 0.11117746 -0.10164123 0.041967887 -0.0022945497 0.093970805 0.08085815 -0.21064197 0.11673578 0.18490231 -0.43330136 -0.006609995 0.0145597 0.005709481 -0.016980032 -0.031191302 -0.08020819 -0.13221794 0.0526476 -0.021706402 -0.33766162 -0.026305152 -0.14962214 0.14205693 0.03268857 0.01832568 0.09825565 -0.05178219 -0.08193083 -0.08362849 0.21137372 0.1124105 0.11472319 0.16561212 -0.060998663 0.05413378 -0.16502891 0.2557012 0.189833 0.0768066 0.1236415 -0.008962169 0.030967036 0.15218632 -0.18275693 0.29160336 -0.14770718 -0.09183772 0.036877505 0.0045369333 -0.024192678 0.13747452 -0.1225473 0.019949904 0.037687246 0.03236834 -0.31974033
spin -0.17689022 -0.047006175 -0.023245884 0.069091015 -0.07116978 0.22859387 -0.11764414 0.17804591 -0.1906177 -0.0045955633 0.30569413 0.12092604 -0.17778943 -0.055763658 0.02775563 -0.14929765 0.013180642 -0.33572808 -0.0337598 0.19025728 -0.2041175 -0.007645085 -0.25669655 0.09413483 0.19374391 0.26131764 -0.17523086 -0.074913606 0.0840679 -0.08005083 -0.05000606 0.22368984 -0.009655936 -0.19618121 0.009239533 -0.025483558 -0.04948009 0.111293465 -0.23337378 0.07909209 0.2574978 -0.2506946 -0.14856997 0.2822026 0.22193478 0.084718406 -0.04402419 0.038609218 -0.003742905 0.0020377121 -0.34198248 0.102939636 0.17160569 -0.24132556 -0.058967285 -0.0020105857 0.15291606 0.048003316 -0.034086358 -0.048791446 -0.18949975 0.018782804 -0.0473032 -0.36688477 -0.09487482 -0.20218489 0.051143054 0.097848356 0.13629255 0.1538622 -0.10523026 -0.17089392 -0.06406851 0.29241163 0.06241813 0.17537513 0.21384998 -0.053723436 0.122221924 -0.17398202 0.23442945 0.111535326 0.06078758 0.019379336 0.014197315 0.08783804 0.24608031 -0.039321523 0.23816621 -0.13847223 -0.1167924 -0.037015837 0.11844527 -0.09725694 0.15786973 -0.09408024 0.21658932 0.15512326 -0.062711835 -0.4412201
sponge -0.17984971 -0.083671175 -0.15358573 0.2897572 -0.13634413 0.3400428 -0.21625876 0.117600106 -0.27801016 0.12718885 0.070165835 0.20436676 -0.05845285 -0.15961303 -0.23792572 -0.11793573 0.3627267 -0.25907075 0.23494108 -0.069496065 -0.13780504 -0.07190364 -0.20684002 0.056044538 0.05237297 -0.043357264 -0.0009290791 0.08815366 0.2173813 -0.31501016 -0.24061935 -0.042484287 -0.056876916 -0.15710315 -0.08371225 -0.03871499 -0.008209176 -0.24417786 -0.31694934 0.1841701 0.16044569 -0.1717602 -0.24351335 0.2602502 0.1795022 -0.22813693 0.2213187 0.120015055 0.20698012 -0.0017135703 0.04876577 0.18190953 0.17996871 -0.16193977 0.029328989 0.07766981 0.112465136 -0.054264937 -0.13557158 -0.0121191 -0.053608768 0.07749296 0.049232524 -0.20574199 0.018551283 -0.019447614 0.051508944 0.10542328 0.112794705 0.036039855 -0.07273482 0.06619864 -0.08587996 0.46981016 0.056621112 0.1502982 0.22205085 -0.17197667 -0.0066881096 -0.07822869 0.20765045 0.09634977 0.05850627 -0.1082574 -0.06971183 -0.19550438 0.106969245 -0.25057235 0.2682183 -0.10007038 0.022528216 -0.092871696 0.23815708 -0.2743622 0.14634845 0.067974284 0.1398791 0.12586267 -0.08093259 -0.10809553
tenergy -0.17080934 -0.022338348 -0.049937673 0.09609136 0.04096368 0.18090378 -0.0023566906 0.16257831 -0.2992081 0.031660814 0.1400739 0.14586323 -0.02292725 -0.03641077 -0.07027006 -0.1054831 0.14682247 -0.15674633 0.16972817 0.028477762 -0.20297408 -0.03505333 -0.17586881 -0.033137947 0.05742911 0.12736289 -0.13004443 -0.10675535 0.15145943 -0.12479671 -0.2126571 -0.06482191 -0.082901806 -0.08952367 -0.007048679 0.026007392 0.016142994 -0.062262055 -0.257657 0.13749637 0.10875559 -0.17098258 -0.16217394 0.26109877 0.0875153 -0.109858066 0.054859735 0.009431942 0.13970782 0.08583985 -0.17623113 0.131656 0.19491221 -0.42076835 0.0063183275 0.018790444 0.010003922 -0.008933138 -0.048971668 -0.06573392 -0.09224982 0.05481603 -0.038495306 -0.33499673 -0.0033963774 -0.12954909 0.119172186 0.030826794 -0.0042515043 0.096384525 -0.039890774 -0.041987486 -0.07292015 0.22721599 0.119303875 0.105600506 0.17485893 -0.06883672 0.044862647 -0.15427172 0.2374455 0.1851431 0.08212564 0.13204323 -0.010576455 -0.0011951072 0.13809359 -0.21538702 0.26742548 -0.119396254 -0.08011678 0.041589867 -0.011626438 -0.040549275 0.12372177 -0.12031321 -0.012915832 0.04633793 0.010449167 -0.28288832
would -0.14959753 -0.022920461 -0.062923126 0.079051405 0.027543668 0.19163726 -0.059591934 0.15558943 -0.33079022 0.041544333 0.14497158 0.16334794 -0.05319983 -0.022561818 -0.086149216 -0.14209875 0.14833479 -0.17493095 0.17948106 0.029806014 -0.19091564 -0.052225 -0.18380198 -0.044103395 0.0946437 0.09237937 -0.10957356 -0.10505298 0.16405718 -0.14071335 -0.20372024 -0.044982295 -0.05779122 -0.08707508 -0.023629067 0.003308682 0.042777203 -0.05679642 -0.26466453 0.14234668 0.08515708 -0.15957735 -0.16146277 0.24931203 0.0845426 -0.11499893 0.07117149 -0.00026236853 0.11460882 0.09373147 -0.15874676 0.11717121 0.15829031 -0.3980111 0.012059363 0.04969718 0.023215028 -0.0208149 -0.046427686 -0.040280428 -0.1148546 0.055669464 -0.043615058 -0.32696098 -0.02241876 -0.112849064 0.12129731 0.056366164 0.031903546 0.09647385 -0.04760805 -0.030052803 -0.09762408 0.21348318 0.09034786 0.12143456 0.17660439 -0.107233964 0.057375617 -0.14249231 0.24929939 0.15371928 0.05900023 0.08966207 -0.02388144 0.0152602 0.1442402 -0.17688397 0.2948684 -0.14851944 -0.06469179 0.018177517 0.02068728 -0.06684084 0.14075449 -0.091310896 0.017855713 0.033877656 0.02985481 -0.27723643
blade -0.14189471 -0.050525896 -0.07900842 0.08225399 0.019268828 0.18368481 -0.14065437 0.14648552 -0.32112136 0.04774814 0.15146433 0.17962548 -0.11582406 0.009045325 -0.110491306 -0.15231934 0.10603805 -0.16360173 0.16533928 0.035378613 -0.18208623 -0.034097034 -0.16491969 -0.059285745 0.082813494 0.105626 -0.082477406 -0.11816074 0.14536074 -0.14270553 -0.20511387 -0.006009314 -0.025438162 -0.10351478 -0.023977345 -0.021034742 0.034355868 -0.04726878 -0.2727306 0.14340615 0.06987157 -0.16637167 -0.14145385 0.25193995 0.07687684 -0.07869854 0.085747816 -4.170731e-05 0.07081283 0.08238889 -0.19143915 0.104845665 0.117571175 -0.38680887 0.050703064 0.04911942 0.03972801 -0.0032529058 -0.05102607 -0.01025075 -0.113536626 0.043368243 -0.070958264 -0.3245429 -0.049543157 -0.10070517 0.12119717 0.09096087 0.052894823 0.10880227 -0.04469383 -0.016512755 -0.083149865 0.2069362 0.080636054 0.15076205 0.14610086 -0.14218435 0.09848807 -0.12834427 0.24393354 0.110531546 0.03832328 0.0600342 -0.016546683 0.038422197 0.18643853 -0.122370124 0.27157405 -0.1383506 -0.03676507 0.023291636 0.012814489 -0.12222806 0.1238114 -0.10431495 0.06454443 0.032561578 0.026303397 -0.2908185
better -0.1542983 -0.03899618 -0.052775864 0.10676319 -0.020103361 0.2156643 -0.0837967 0.16480495 -0.27766907 0.03643347 0.20923042 0.14094225 -0.10095341 -0.05400022 -0.058693103 -0.14700824 0.114814125 -0.2432647 0.102285355 0.073203504 -0.18916033 -0.03467035 -0.20167711 0.0154756345 0.11791506 0.15458661 -0.1062577 -0.07361293 0.14469737 -0.11793608 -0.15776575 0.04137708 -0.048028465 -0.13469115 -0.016726824 0.0033483813 0.0005135824 -0.023480538 -0.2567281 0.12795906 0.1563944 -0.20128797 -0.1375737 0.25486585 0.13970903 -0.04817724 0.04289481 0.031741187 0.077422686 0.052807327 -0.210125 0.12690267 0.1827855 -0.35951725 -0.0033640547 0.030380476 0.08738987 -0.003485177 -0.04483159 -0.03283652 -0.14262684 0.045831546 -0.039889563 -0.33298796 -0.038544238 -0.12915199 0.09465657 0.07158939 0.06906424 0.11785475 -0.07105465 -0.068439014 -0.07877575 0.26832014 0.06974885 0.14741595 0.1865625 -0.09563737 0.078383975 -0.14425626 0.24454117 0.15202329 0.06549848 0.05792646 -0.02318832 0.030620415 0.1841066 -0.12431675 0.27418634 -0.15137297 -0.07196769 -0.011598456 0.06518782 -0.10720324 0.1382494 -0.09110643 0.10768084 0.08101441 -0.0127129415 -0.32010576
play -0.13188241 -0.04122728 -0.062347084 0.102210805 -0.014597668 0.17165542 -0.10235672 0.17614858 -0.28545803 0.0075601744 0.18773025 0.16271146 -0.10436929 -0.022362022 -0.08969464 -0.16091713 0.07021947 -0.19659941 0.11580608 0.063106775 -0.20417745 -0.02011962 -0.19267552 -0.042130742 0.104556076 0.15709126 -0.09801702 -0.11808252 0.11959218 -0.12099052 -0.14995094 0.007353259 -0.022499053 -0.113780685 -0.029607909 -0.0044997446 -0.019237984 0.0028911312 -0.25374326 0.124454565 0.10487678 -0.18435213 -0.1013291 0.26416883 0.09659112 -0.053756528 0.031965233 -0.005501184 0.047216672 0.07155696 -0.23395814 0.10396442 0.15047367 -0.4014775 0.022515623 0.045010608 0.07108675 0.024321973 -0.01844697 -0.021494573 -0.12068005 0.048232518 -0.062092755 -0.34666786 -0.059707414 -0.13340147 0.12799905 0.1044495 0.082875475 0.12242471 -0.0711243 -0.038580578 -0.08136819 0.18012795 0.057992686 0.17685148 0.17396753 -0.14864358 0.11091107 -0.13647695 0.24815999 0.11686199 0.041177306 0.06977953 -0.020274304 0.064899996 0.18945861 -0.099828444 0.27495953 -0.15496442 -0.046203747 0.002821922 0.015340402 -0.13527372 0.114345185 -0.0942912 0.1092606 0.061016057 0.019911652 -0.33731455
ball -0.1595832 -0.070048586 -0.04582687 0.085284285 -0.090968646 0.20873943 -0.19723073 0.18399848 -0.20887211 0.005867857 0.28623024 0.13822265 -0.20323795 -0.04959647 -0.041993786 -0.18708442 0.007859311 -0.31977352 -0.02494969 0.1674003 -0.17747775 -0.025467878 -0.22752678 0.035814214 0.17685908 0.24441302 -0.11267616 -0.08505775 0.08882102 -0.12651521 -0.049209435 0.20277463 0.031812 -0.18557197 -0.043509543 -0.035493318 -0.080513775 0.097784966 -0.2488982 0.06861585 0.21216889 -0.24702592 -0.10286787 0.28497484 0.1844648 0.08808133 -0.010864711 0.049332 -0.011376781 0.005053133 -0.32862124 0.07843475 0.14265333 -0.25769943 -0.008942897 0.025986232 0.18359171 0.06086564 -0.02357374 0.013118567 -0.16576947 0.01745888 -0.06721667 -0.37976354 -0.11581288 -0.1606649 0.0644305 0.19267431 0.15619685 0.1872089 -0.09747589 -0.11308428 -0.08394804 0.24918221 0.007864703 0.22449164 0.18988071 -0.15226297 0.16791382 -0.14651702 0.21796452 0.06265172 0.033946797 -0.012204997 0.010634677 0.11350621 0.24761392 0.023879709 0.24285878 -0.13492209 -0.07250122 -0.0370204 0.09723373 -0.20685883 0.138004 -0.05969618 0.26342404 0.13550743 -0.035462007 -0.41433394
use -0.15147047 -0.04455448 -0.08204831 0.13296999 0.004027342 0.19226764 -0.11431767 0.1527428 -0.31534326 0.075344816 0.090169095 0.16896227 -0.066849105 -0.04182594 -0.14959091 -0.1307696 0.17262143 -0.15839516 0.2000672 -0.0054575214 -0.17185153 -0.07158058 -0.15251578 -0.056056358 0.09142343 0.054941308 -0.056102216 -0.06867573 0.19278677 -0.17713702 -0.23465611 -0.07822328 -0.03452929 -0.09009305 -0.05220595 0.004531253 0.021130703 -0.11695213 -0.2880234 0.17371409 0.08491672 -0.17070347 -0.1448692 0.2528276 0.06395101 -0.1634957 0.11661519 0.017720396 0.11844699 0.06372995 -0.09531485 0.11268823 0.13800766 -0.36783227 0.054941718 0.055940297 0.044733457 -0.034053165 -0.07128114 -0.0072449786 -0.08353855 0.07864087 -0.045584437 -0.2791491 -0.009261244 -0.08239621 0.12310345 0.100780636 0.042091534 0.076686196 -0.0721104 0.027125847 -0.0898948 0.2511337 0.07874052 0.14595208 0.17507216 -0.16265766 0.08128074 -0.11512835 0.22093467 0.12230421 0.060018722 0.05987935 -0.01726976 -0.028906547 0.13530861 -0.18388025 0.29652855 -0.12717967 -0.03346914 -0.01874334 0.035676938 -0.13544153 0.13256656 -0.05640946 0.04364307 0.019525547 0.011729572 -0.22346462
one -0.1379026 -0.058994684 -0.1105888 0.116303585 -0.00042656594 0.18088444 -0.15979533 0.15216188 -0.3322334 0.06999104 0.095134616 0.19757119 -0.10672036 -0.01586923 -0.18538032 -0.16664304 0.17519952 -0.155911 0.22221889 0.014937567 -0.17796318 -0.057731356 -0.14950642 -0.07441739 0.08863266 0.06462353 -0.051884636 -0.09771382 0.17098515 -0.17960668 -0.20763873 -0.06386471 -0.030306745 -0.07765093 -0.054521114 -0.024372648 0.034674548 -0.11291748 -0.29562888 0.16123164 0.0404351 -0.14074233 -0.15079638 0.2511926 0.055963535 -0.114010885 0.12943242 0.0272951 0.10107799 0.08939471 -0.13899145 0.10834454 0.1041738 -0.38616663 0.0680253 0.07753454 0.03604265 -0.019908385 -0.054324955 -0.007409773 -0.09264728 0.053746153 -0.044839107 -0.32319206 -0.04104384 -0.08513043 0.13773933 0.1085009 0.06694251 0.11699404 -0.0462272 0.028289275 -0.10628095 0.20826663 0.05643175 0.15428653 0.16434868 -0.20013341 0.105023004 -0.1268974 0.23932104 0.08855642 0.013621071 0.025728757 -0.022265902 0.002145615 0.1647152 -0.15548912 0.29115507 -0.14044373 -0.0021653757 -0.029076086 0.022291945 -0.1739731 0.124327295 -0.065161884 0.059426565 0.007489242 0.023468148 -0.22831547
get -0.13802367 -0.055442516 -0.08487627 0.12119104 -0.04909241 0.20476991 -0.16359933 0.1606624 -0.27701503 0.041577425 0.17924377 0.15417625 -0.13152254 -0.034777984 -0.10957617 -0.16846786 0.11337576 -0.22742927 0.10442665 0.06534547 -0.19287887 -0.04357699 -0.19356461 -0.007875332 0.12894309 0.14428663 -0.069590785 -0.0975385 0.13519627 -0.1549437 -0.14347222 0.054470535 -0.005343298 -0.13181774 -0.048321795 -0.015859794 -0.011900893 -0.018409003 -0.27405384 0.11534989 0.13228664 -0.19423239 -0.13446891 0.262984 0.109417565 -0.046277776 0.051492643 0.03742554 0.051136255 0.040751968 -0.21413563 0.10868311 0.13969107 -0.3198177 0.0071315756 0.034516476 0.106633805 0.015687987 -0.046462975 -0.020547915 -0.12925015 0.03805721 -0.04791285 -0.33546686 -0.06845564 -0.1290105 0.0941334 0.12142412 0.10791058 0.13644552 -0.07882202 -0.05513138 -0.09959542 0.23388787 0.05052484 0.17519291 0.18408331 -0.15681739 0.10983768 -0.13572147 0.23711486 0.09711017 0.036917996 0.022921147 -0.022903617 0.032391928 0.19889742 -0.09238289 0.26794145 -0.13081749 -0.034493376 -0.03865331 0.06704249 -0.16551475 0.12304873 -0.059503283 0.13304107 0.07164277 -0.010107872 -0.3190642
using -0.08745833 0.004949562 -0.02104106 -0.095079094 0.07866805 0.17089115 -0.13214745 0.113853626 -0.49810454 0.17752752 0.07999959 0.22199035 -0.2203988 -0.0026530449 -0.16289139 -0.09451972 0.14084654 -0.1823523 0.20196813 0.12244248 -0.114051245 -0.15053388 -0.1203873 -0.09977693 0.23538874 -0.07424275 -0.084459186 -0.12353526 0.1885981 -0.15547045 -0.2498557 -0.07785072 -0.0322995 -0.12864077 0.009028397 -0.15371072 0.17416474 -0.04762628 -0.3748872 0.26640382 -0.018208193 -0.15512101 -0.30629525 0.19315 0.13937813 -0.047662023 0.18191108 -0.014166249 0.10928009 0.06508255 -0.099823326 0.14265735 0.007653525 -0.40097064 0.09350397 0.22745591 -0.04993262 -0.087025344 -0.12157587 0.13339534 -0.16241679 0.14252307 -0.084604435 -0.3410046 -0.036382582 0.04042233 0.17788132 0.17016423 0.054386284 0.08674041 0.04249019 0.013651662 -0.08341116 0.13782719 0.015835132 0.08863637 0.16891995 -0.1604035 0.1509417 -0.06255671 0.19135612 0.04247814 0.056632992 -0.022669112 -0.0005028826 0.022456313 0.07539595 -0.11141394 0.3727666 -0.13721286 -0.14242199 0.05970386 -0.005166809 0.007483325 0.22140375 -0.13200131 0.09510736 -0.04691701 0.11883639 -0.07858554
think -0.144488 -0.0517157 -0.07846139 0.10336769 0.006107675 0.19323024 -0.08654819 0.15038069 -0.30673382 0.028046265 0.15375113 0.15770586 -0.06867402 -0.027049463 -0.08828355 -0.14859913 0.15162104 -0.19054256 0.16333327 0.037853576 -0.20422547 -0.031441633 -0.1928812 -0.025979215 0.09328526 0.1224785 -0.09007875 -0.10181483 0.14668709 -0.13319428 -0.17902555 -0.023415832 -0.039541867 -0.09583786 -0.027060678 0.019108389 0.023401927 -0.057865474 -0.24944091 0.14453745 0.10758189 -0.1766697 -0.13341573 0.25130206 0.088340126 -0.08858851 0.06386998 0.02207397 0.11288296 0.092358984 -0.1756733 0.12996909 0.16236801 -0.38234064 0.0069175777 0.038071502 0.05641894 -0.005022174 -0.043828152 -0.029085942 -0.11294382 0.054501638 -0.03407106 -0.328945 -0.03216973 -0.12405178 0.11822542 0.055689078 0.05007694 0.115392596 -0.054781727 -0.029432567 -0.09833657 0.23095754 0.07167764 0.14200506 0.17010301 -0.12026968 0.06525533 -0.13792557 0.23691241 0.1481284 0.05805977 0.07631256 -0.026311632 0.010042895 0.1575008 -0.1648373 0.2817629 -0.14797649 -0.04365332 0.0037789766 0.035483643 -0.09780505 0.1196896 -0.08290103 0.02917584 0.051679846 0.009184128 -0.2876202
... -0.14798966 -0.04617847 -0.07436425 0.09409588 0.035191428 0.17742594 -0.073296264 0.15678632 -0.3158921 0.038971864 0.13005093 0.19864944 -0.056925017 -0.006233562 -0.12761359 -0.13301443 0.13948892 -0.12167813 0.23582621 0.037330102 -0.19488719 -0.0723805 -0.15184557 -0.07576982 0.07078206 0.08004015 -0.08447588 -0.119345844 0.16465993 -0.14145675 -0.20280848 -0.06168276 -0.039702777 -0.08021839 -0.028787153 -0.033109844 0.056362838 -0.08908558 -0.26590547 0.14157481 0.011138695 -0.13252506 -0.16699985 0.23950912 0.06402536 -0.08781363 0.11271108 -0.008337962 0.09186034 0.12645991 -0.1626836 0.10552553 0.11516603 -0.43039298 0.058768235 0.071793206 -0.013368235 -0.034929086 -0.052042596 -0.033742975 -0.128475 0.049254294 -0.029477255 -0.33158144 -0.02675041 -0.09367027 0.158719 0.0653082 0.03691303 0.10159022 -0.026243271 -0.005731451 -0.11173593 0.14369944 0.09709787 0.10314043 0.13273507 -0.16769908 0.09839765 -0.14989027 0.22663262 0.1133169 0.028224928 0.118455134 -0.027136799 0.013706802 0.14451274 -0.16427492 0.30053037 -0.1288337 -0.009603052 0.037504684 -0.024520753 -0.11498977 0.13723397 -0.10245942 0.0005777872 -0.00570111 0.05840737 -0.2563103
much -0.15123484 -0.042960186 -0.070125744 0.08737124 -0.008975376 0.20255506 -0.08319866 0.1597963 -0.29353154 0.028534764 0.1904251 0.15104902 -0.10042784 -0.042630304 -0.058774844 -0.13313851 0.104045816 -0.2334657 0.10563608 0.073309235 -0.1877925 -0.020336704 -0.20852815 0.016700432 0.14028767 0.1435882 -0.11753352 -0.09673786 0.13045374 -0.1294804 -0.14908189 0.036283072 -0.047103237 -0.13833551 -0.01422278 -0.007063556 0.006177316 -0.01195413 -0.26469427 0.13368723 0.14548624 -0.19150707 -0.14951956 0.26195076 0.13640183 -0.04537323 0.039253484 0.021018097 0.07356953 0.05599254 -0.21710742 0.1218346 0.16688757 -0.34748298 -0.010824739 0.041036133 0.077141464 0.0072749597 -0.049526453 -0.016601142 -0.14098063 0.038657703 -0.040308706 -0.34431556 -0.043977834 -0.13765554 0.10640126 0.0790492 0.071434684 0.11102779 -0.05924134 -0.06575984 -0.095085375 0.24644823 0.06672901 0.14283754 0.17934395 -0.10157023 0.0782872 -0.13592091 0.24563436 0.13458996 0.0638521 0.04681185 -0.010413127 0.02225615 0.17363253 -0.12864564 0.26994368 -0.13647148 -0.07706537 0.0028548788 0.05756748 -0.09937595 0.14352265 -0.08514368 0.0825057 0.06820262 -0.005135236 -0.31973314
the -0.15697569 -0.061846487 -0.10152534 0.13870212 -0.037544098 0.24005488 -0.13620324 0.13969588 -0.28493622 0.051907003 0.13294429 0.164531 -0.091034785 -0.047191776 -0.13020222 -0.14456406 0.17952089 -0.21376266 0.1504695 0.029142682 -0.17246257 -0.033622436 -0.19681486 0.0058350875 0.10133501 0.10413074 -0.06674346 -0.0495497 0.15354814 -0.18849397 -0.18636452 -0.00038521743 -0.04625981 -0.13391103 -0.044114955 -0.014902417 0.002646079 -0.08300853 -0.265893 0.1478729 0.1230593 -0.1722058 -0.16311713 0.26577827 0.12963499 -0.10719384 0.09816259 0.046946842 0.11589922 0.05505781 -0.1409828 0.13447732 0.16067529 -0.3075856 0.026150286 0.04984305 0.08134472 -0.005537639 -0.06592838 -0.014567948 -0.1071471 0.05421385 -0.03125335 -0.299363 -0.02623028 -0.1037162 0.09018741 0.09588755 0.08487489 0.107168935 -0.050972745 -0.011623944 -0.08270166 0.2855408 0.06758853 0.15746738 0.18028268 -0.15849565 0.07128593 -0.122493125 0.22273879 0.10972228 0.03836528 0.023259366 -0.031020444 -0.02462298 0.16040504 -0.1607287 0.26166922 -0.13120092 -0.02904857 -0.033426616 0.08020724 -0.17166515 0.12627426 -0.055387016 0.108114555 0.07920663 -0.02317026 -0.25309414
also -0.17399636 -0.02343579 -0.054628152 0.092368454 0.014730758 0.20730029 -0.03226323 0.16050653 -0.28141677 0.040150568 0.1517038 0.15156831 -0.04524087 -0.04643103 -0.0633645 -0.11273516 0.13989702 -0.19865741 0.14098409 0.044642422 -0.19951664 -0.052179214 -0.19545884 -0.008498482 0.083670564 0.12228188 -0.1318987 -0.08211834 0.1432543 -0.12014295 -0.18961725 -0.016646389 -0.064077385 -0.10463072 -0.011602029 0.015559687 0.014209992 -0.045581136 -0.24847603 0.14385712 0.12084054 -0.18238622 -0.15979049 0.2596489 0.1279192 -0.10034752 0.048911322 0.012144302 0.11341161 0.07226388 -0.18045197 0.13555057 0.19732791 -0.3795118 -0.015590113 0.026715914 0.034999434 -0.013180383 -0.04182342 -0.060804076 -0.116830684 0.052938916 -0.017725918 -0.3257684 -0.030734837 -0.12900218 0.112693146 0.04133177 0.032811183 0.09962761 -0.045056157 -0.05214029 -0.08577105 0.24589741 0.10425615 0.10592098 0.19014224 -0.070358366 0.04833803 -0.15373494 0.24499816 0.18403159 0.07771045 0.098012336 -0.019683924 0.0025151186 0.13823734 -0.19051582 0.27052873 -0.13134891 -0.08395521 0.014210939 0.023420976 -0.06692608 0.14693011 -0.1055982 0.027368834 0.06400045 0.0004508849 -0.29422632
try -0.15912935 -0.03669063 -0.07791217 0.09786757 0.036159027 0.18951237 -0.04549175 0.14673935 -0.3326951 0.04356339 0.12203897 0.16556144 -0.05218656 -0.015178712 -0.10101747 -0.14473698 0.16421378 -0.13202934 0.19712944 0.019743232 -0.2199743 -0.04955571 -0.17935364 -0.07248781 0.07505737 0.11114183 -0.0956431 -0.11778568 0.16191629 -0.12946393 -0.22330427 -0.07198008 -0.05640572 -0.066758804 -0.03550853 0.00752611 0.063650295 -0.076033175 -0.26581395 0.15169965 0.05068277 -0.14206098 -0.15035832 0.25934154 0.068695724 -0.12440103 0.06715741 -0.008523572 0.105331786 0.10248993 -0.16707088 0.13263443 0.16335836 -0.4460932 0.008143329 0.045453355 1.8824685e-06 -0.034280177 -0.041101538 -0.06254999 -0.1222287 0.0629334 -0.02087861 -0.31891236 -0.035398252 -0.117809296 0.13272698 0.026149431 0.021619216 0.104564175 -0.041620128 -0.03283665 -0.09618724 0.19953151 0.09493994 0.11579756 0.16688986 -0.106941305 0.04937664 -0.15118256 0.25125167 0.17449711 0.062587775 0.0979515 -0.037396155 0.00392022 0.13802911 -0.19726773 0.29505858 -0.1537546 -0.04856926 -0.0008920766 -0.0106693 -0.077004276 0.12833905 -0.10773438 -0.022968892 0.022153549 0.04000279 -0.27491826
hard -0.15869021 -0.061397288 -0.07360766 0.11357027 -0.053228974 0.21608783 -0.12491058 0.15716308 -0.2578411 0.018728876 0.20588526 0.13957024 -0.11629353 -0.064863235 -0.078641474 -0.15087765 0.117264576 -0.23811957 0.079292744 0.09357452 -0.20653416 -0.04538627 -0.2218181 0.012141206 0.11822743 0.1495081 -0.095102474 -0.047903363 0.11957896 -0.14010401 -0.13856123 0.061141506 -0.01606789 -0.13481236 -0.031780697 -0.002175301 -0.023205042 0.01299973 -0.24528292 0.109224856 0.17491998 -0.21578203 -0.12123017 0.26678005 0.1370684 -0.04740859 0.04966148 0.040960684 0.07117564 0.044269174 -0.21623702 0.106056534 0.16976699 -0.2973086 -0.010715428 0.016098129 0.10724767 0.0012232453 -0.043871246 -0.009751119 -0.13947074 0.05807553 -0.041072465 -0.30851343 -0.05551203 -0.13059877 0.07755901 0.11449802 0.09942751 0.14908877 -0.068152845 -0.066359825 -0.08990207 0.29066315 0.0340068 0.17743108 0.19319554 -0.12605745 0.09597337 -0.12525529 0.21345702 0.12186998 0.046213876 0.027665524 -0.015213843 0.04667324 0.20463277 -0.11044877 0.267453 -0.15259875 -0.053253002 -0.017214451 0.095322885 -0.16228038 0.13200666 -0.049084846 0.129757 0.09799357 -0.013901611 -0.30583292
chinese -0.15408182 -0.0604421 -0.072921276 0.105945066 -0.027980061 0.19560696 -0.114299536 0.18209198 -0.30099052 0.03935989 0.13931464 0.16726448 -0.08400903 -0.059376143 -0.11115024 -0.137593 0.17478502 -0.16030872 0.15729995 0.047268182 -0.20233276 -0.089022085 -0.16314492 -0.037717003 0.12391385 0.08670945 -0.073107526 -0.05414058 0.16096245 -0.13802019 -0.19701621 -0.031044492 -0.03425832 -0.11578135 -0.049138643 0.024486817 -0.0019567101 -0.042334035 -0.26109374 0.13979164 0.13070568 -0.19553037 -0.13744374 0.2567973 0.08738957 -0.12880962 0.07487035 0.01966627 0.097984426 0.051769145 -0.14919336 0.11740724 0.15453301 -0.34486347 0.012148433 0.026732804 0.07816517 -0.04076576 -0.057354677 0.0010988077 -0.11529363 0.06412705 -0.0121881105 -0.28653175 -0.024958758 -0.11631559 0.113588236 0.10068425 0.07189172 0.108735375 -0.06754079 -0.017906902 -0.08402572 0.29067013 0.060435448 0.1518597 0.19905846 -0.1284681 0.09819397 -0.12569778 0.20342188 0.14153033 0.06337419 0.066302985 -0.019903699 -0.0035295587 0.18037085 -0.1824216 0.28923884 -0.15402487 -0.059084278 -0.015334449 0.066102445 -0.1521727 0.12520772 -0.047150627 0.05178008 0.032252535 0.020009259 -0.26382717
time -0.12184398 -0.0709354 -0.095191695 0.12733574 -0.024654515 0.16822277 -0.18664709 0.16548267 -0.29538584 0.015990628 0.14590472 0.18588386 -0.14411587 -0.025452487 -0.14800636 -0.17065416 0.09594742 -0.18527639 0.14528885 0.05277106 -0.18713273 -0.025848035 -0.18093887 -0.07057221 0.108557045 0.14102404 -0.06320971 -0.12570898 0.1422393 -0.16284366 -0.141593 -0.014499343 0.014309147 -0.08537021 -0.05673276 -0.015695767 -0.019892003 -0.06141777 -0.2872925 0.13119598 0.07230638 -0.17495075 -0.11277177 0.2636169 0.0687706 -0.07053005 0.07134271 0.012068226 0.04666437 0.075999506 -0.19080822 0.09542444 0.107634954 -0.3922792 0.059032906 0.06346891 0.073732324 0.03412448 -0.040535316 -0.0038499667 -0.08825006 0.0504857 -0.07265801 -0.34659022 -0.06659802 -0.1237389 0.12063207 0.13167268 0.10273857 0.14716376 -0.07320116 0.0020372488 -0.100906104 0.17303115 0.05569398 0.1860523 0.17043048 -0.20671456 0.12705112 -0.12984318 0.23650053 0.072177865 0.014986377 0.032964136 0.0016607518 0.050239973 0.2017204 -0.09717715 0.26502565 -0.14340103 -0.012420526 -0.027733415 0.0067923935 -0.18694651 0.10433349 -0.057471413 0.09793644 0.03434511 0.037433486 -0.31058815
speed -0.16829066 -0.057152048 -0.06540787 0.120073155 -0.049034756 0.22983007 -0.14760633 0.1600666 -0.23573405 0.03364509 0.24682416 0.15199186 -0.15821251 -0.069403574 -0.041926533 -0.1509009 0.07531299 -0.30070657 0.03358845 0.10145789 -0.175297 -0.022973241 -0.21395536 0.068699114 0.14575441 0.18957736 -0.12513481 -0.06674452 0.120623864 -0.13321027 -0.10844035 0.15176205 -0.0075830813 -0.17613736 -0.0094993645 -0.023161324 -0.04202395 0.012410958 -0.27382994 0.11073865 0.19628438 -0.21965736 -0.15647586 0.28720513 0.18930556 -0.007836114 0.010888906 0.04728015 0.030527104 0.00902763 -0.2518654 0.1151575 0.15687259 -0.2558326 -0.030066775 0.019436624 0.13452484 0.044490848 -0.048635546 -0.0466919 -0.14497414 0.024311496 -0.04149826 -0.3457123 -0.0691382 -0.16142748 0.07180093 0.11925397 0.116238385 0.15770434 -0.09632241 -0.089238286 -0.07427067 0.29672906 0.06372468 0.15877682 0.18418103 -0.09095929 0.11864731 -0.15018034 0.24798687 0.10054085 0.067574605 0.0067211976 0.0076804506 0.03293583 0.20540328 -0.06937679 0.24167146 -0.11680978 -0.080471165 -0.044358578 0.11031434 -0.11900273 0.13369414 -0.07366055 0.18327032 0.110438384 -0.05363482 -0.3673675
used -0.15769537 -0.054452296 -0.075022765 0.122649744 0.006479245 0.18103887 -0.08443771 0.16830714 -0.3013741 0.048866194 0.09702865 0.16145657 -0.048704084 -0.041141022 -0.15112689 -0.1324067 0.17584419 -0.14760116 0.19579898 -9.850707e-05 -0.1784291 -0.05287084 -0.16087145 -0.05374174 0.083582915 0.08096346 -0.078577645 -0.07086497 0.17392011 -0.16657564 -0.2133635 -0.07284165 -0.042041834 -0.07313768 -0.03078546 0.03159586 0.0031694646 -0.10657532 -0.2689613 0.15170816 0.09007194 -0.16831729 -0.14881298 0.26341635 0.06413158 -0.1633973 0.10569203 0.0057782955 0.12813921 0.07779615 -0.12361256 0.13131723 0.16117994 -0.38658935 0.032102477 0.044176843 0.022244478 -0.025827715 -0.06174053 -0.019748677 -0.0792711 0.08150672 -0.038563598 -0.3026741 -0.017576307 -0.10081154 0.12802874 0.06869338 0.03439349 0.08006547 -0.053563498 0.027176177 -0.0960181 0.25060442 0.093885966 0.13155603 0.17434591 -0.14531459 0.06432498 -0.120450966 0.23443675 0.16006573 0.06057878 0.07929207 -0.033974342 -0.03375764 0.15256755 -0.21061009 0.28347215 -0.13399422 -0.05535133 0.0050141015 0.024261206 -0.13693634 0.12866299 -0.057684995 0.024779892 0.016379911 0.020810183 -0.24939795
feel -0.15983647 -0.044155028 -0.08535227 0.11669663 -0.04297945 0.22493811 -0.098629765 0.153703 -0.27585155 0.031163882 0.2018478 0.14072025 -0.09828199 -0.047320124 -0.06462759 -0.14546517 0.13611557 -0.23625207 0.10076737 0.083474524 -0.19843018 -0.015956754 -0.22963008 0.029886004 0.12606318 0.16472241 -0.10450684 -0.07094153 0.12769161 -0.13278548 -0.1491094 0.044661123 -0.046558123 -0.13678768 -0.019299027 0.012182298 0.00022200032 -0.012818767 -0.25205633 0.12946835 0.16861911 -0.19866666 -0.14301986 0.2584489 0.15280175 -0.0564197 0.019801613 0.03892872 0.08605962 0.05916917 -0.21200071 0.11965598 0.17754716 -0.32354936 -0.017978262 0.022157863 0.096176125 0.002331988 -0.042095866 -0.029455723 -0.13080643 0.031179663 -0.018906388 -0.3342232 -0.034755055 -0.14478901 0.0796156 0.05763145 0.074220784 0.12839095 -0.056670602 -0.061245423 -0.080776066 0.29153168 0.055678423 0.15962751 0.19933783 -0.10368686 0.061602853 -0.13806197 0.22390655 0.15024139 0.068553805 0.038358677 -0.029222421 0.015998093 0.18675734 -0.13384262 0.25713632 -0.16003601 -0.04912839 -0.02664959 0.0814666 -0.12951891 0.12922832 -0.08020823 0.10523595 0.10809531 -0.02830265 -0.3251472
control -0.16046382 -0.02708996 -0.030603362 0.07480145 -0.026025804 0.21223983 -0.088955574 0.17243877 -0.2555617 0.02119521 0.26662976 0.12095192 -0.15414318 -0.028861778 -0.019750215 -0.14280464 0.034003705 -0.2723972 0.03385395 0.13218717 -0.2013412 -0.0074737933 -0.22786595 0.0595972 0.15535955 0.22502176 -0.14399455 -0.09663408 0.12438846 -0.09781561 -0.088815235 0.15135194 -0.025580863 -0.15703996 0.0044434858 -0.017353885 -0.020986287 0.05593446 -0.257012 0.10728752 0.20018199 -0.22345413 -0.1281301 0.26887625 0.18514845 0.036844082 -0.0046085324 0.018852567 0.035608135 0.041027598 -0.2967645 0.104556695 0.17063874 -0.31707036 -0.031728927 0.018377353 0.11289652 0.040142875 -0.03351704 -0.051000237 -0.17654859 0.022455474 -0.0501159 -0.3623508 -0.08471689 -0.17257395 0.07309072 0.08056809 0.1077594 0.14438881 -0.075669356 -0.12672277 -0.07076905 0.2504976 0.06982381 0.15307744 0.17980665 -0.067560546 0.10978307 -0.15552323 0.25190434 0.1313904 0.06631117 0.051143542 0.002302059 0.07558976 0.21775222 -0.06166073 0.23972891 -0.1336559 -0.093371816 -0.008993647 0.06750513 -0.08598868 0.1422966 -0.10884433 0.15861887 0.12911536 -0.025952108 -0.40386087
pro -0.20617291 0.069159515 -0.045817222 -0.016320461 0.1967099 0.20401129 0.28929073 0.1752144 -0.3656333 0.028760204 0.08947601 0.1391394 0.1613494 -0.0559108 0.07351827 0.020268142 0.26627728 -0.09560437 0.26077288 0.05158954 -0.32103646 -0.10344648 -0.23119542 -0.05664635 -0.008204792 0.10848942 -0.2692917 -0.10657328 0.14636761 -0.008132903 -0.3005416 -0.20939128 -0.24383958 -0.04185455 0.0643165 0.053191986 0.14887008 -0.061244186 -0.235717 0.1642947 0.050686818 -0.15743671 -0.2832099 0.24373177 0.1557346 -0.2299691 0.036474794 -0.03806586 0.26635414 0.15211591 -0.14637414 0.20937832 0.3515602 -0.6129624 -0.1403104 0.015599246 -0.1950877 -0.12968114 -0.015304384 -0.27697954 -0.13409422 0.096267566 0.06349311 -0.3621613 0.06608595 -0.15962243 0.15446244 -0.20917457 -0.13446431 0.065648675 0.036905907 -0.12592797 -0.10841444 0.2760165 0.27026173 -0.062701546 0.22442247 0.18646301 -0.11915419 -0.2200692 0.27364585 0.40001205 0.18191569 0.31300023 -0.011471225 0.005644566 0.022543337 -0.45116973 0.33963877 -0.17245452 -0.24106936 0.13265723 -0.09271225 0.22887757 0.18712032 -0.22714053 -0.25082427 0.057858434 0.07541165 -0.27224013
know -0.12927964 -0.046210337 -0.08642416 0.1290706 0.0077641285 0.16855289 -0.09545848 0.16319054 -0.31655452 0.03797439 0.11290717 0.16541322 -0.056693204 -0.01918824 -0.1261035 -0.15095043 0.14579596 -0.16080114 0.20261893 0.0010522574 -0.18786313 -0.039696936 -0.17854556 -0.061957177 0.073417395 0.09919137 -0.06459654 -0.099135205 0.15002394 -0.1672786 -0.20166728 -0.068240464 -0.046846297 -0.08323451 -0.03874384 0.00634554 0.021292595 -0.08833025 -0.26616153 0.14388196 0.05887115 -0.15625978 -0.1329063 0.27206826 0.05463491 -0.13478847 0.09068358 -0.00035872072 0.10105325 0.09048611 -0.1528384 0.123498954 0.15362135 -0.40657315 0.039937165 0.046755306 0.025390312 0.00015198375 -0.035490263 -0.033071816 -0.100005195 0.064233385 -0.048437744 -0.31334826 -0.033048443 -0.11508551 0.13644813 0.07962835 0.04511401 0.08824125 -0.057354942 0.002063161 -0.10986815 0.19986545 0.06714015 0.13246858 0.16222529 -0.16086273 0.068281524 -0.13816781 0.25621456 0.12883069 0.043755222 0.07638386 -0.037251268 0.00417311 0.1396464 -0.16163799 0.29363015 -0.14028054 -0.037209034 -0.017401189 0.013542855 -0.13388364 0.12141804 -0.08125576 0.048223037 0.027914297 0.022001361 -0.2636397
want -0.13976888 -0.039495025 -0.07421353 0.118876055 -0.0054748696 0.19889571 -0.11338479 0.15152851 -0.30107787 0.041406978 0.15328658 0.1643708 -0.08996334 -0.027757319 -0.10008052 -0.15644252 0.123760305 -0.17866305 0.1573041 0.03292988 -0.2015124 -0.046230484 -0.17442068 -0.04550076 0.10351521 0.107955895 -0.090687424 -0.10024989 0.15594973 -0.13579276 -0.1944589 -0.02113656 -0.038662754 -0.09690812 -0.044811185 0.010839758 0.018482054 -0.06193071 -0.2784768 0.14137836 0.10392356 -0.17659438 -0.13625312 0.25887504 0.06784803 -0.097354345 0.052488226 0.0020567023 0.08059373 0.06968362 -0.17556262 0.11274389 0.15492618 -0.39251018 0.017438786 0.047648184 0.043982986 -0.012896902 -0.048907045 -0.03734092 -0.11956113 0.06088956 -0.040073946 -0.3185514 -0.037070725 -0.11804926 0.11297352 0.07164626 0.059187558 0.10813994 -0.057869382 -0.03140121 -0.08423445 0.2247863 0.07352478 0.15845028 0.1681121 -0.14018361 0.082645215 -0.14104955 0.23745906 0.13879736 0.05551969 0.061485127 -0.019540831 0.017668527 0.17663847 -0.15713505 0.27564064 -0.14954379 -0.03915493 -0.00921507 0.022183083 -0.12047447 0.13564299 -0.079503894 0.04615298 0.034069225 0.013177896 -0.2808304
t05 -0.14879045 -0.041371424 -0.049973052 0.114513904 -0.033309128 0.19904295 -0.10889745 0.1598881 -0.2810562 0.033037703 0.22916125 0.13830109 -0.12395089 -0.03688981 -0.056248415 -0.16818522 0.05808853 -0.25555354 0.09053117 0.094468795 -0.18082954 -0.012385005 -0.21711534 0.017679876 0.1471403 0.15715596 -0.12028427 -0.10650561 0.11440896 -0.13351157 -0.12776433 0.085653394 -0.011234331 -0.14698808 -0.0078060436 -0.011145617 -0.024299465 0.014217843 -0.2501401 0.116069585 0.13626726 -0.19374526 -0.1350191 0.27745906 0.13174327 0.0034291106 0.028287547 0.017384565 0.05615639 0.07346365 -0.25244287 0.09567999 0.13324195 -0.33570796 0.0173143 0.036809195 0.10441133 0.031138808 -0.022543417 -0.0061110975 -0.14607148 0.042401947 -0.07383014 -0.3661828 -0.067041785 -0.14685151 0.09575932 0.08762921 0.09047533 0.12497894 -0.07232771 -0.076563545 -0.07710055 0.21687889 0.053956926 0.16424279 0.17720796 -0.12516323 0.0988944 -0.14289705 0.2550403 0.10315672 0.030162033 0.024334336 -0.01632136 0.0532229 0.20452182 -0.09211945 0.26487368 -0.14884439 -0.053917862 -0.011445849 0.06519234 -0.12794982 0.12943253 -0.08926358 0.14751203 0.07873397 -0.008303101 -0.36022907
but -0.1416634 -0.050952625 -0.08941112 0.11132442 -0.00073711434 0.18721396 -0.12198641 0.15307197 -0.3054833 0.025574422 0.16314198 0.17145646 -0.11256722 -0.020457054 -0.10527973 -0.16532512 0.10511263 -0.20996098 0.14951538 0.054538798 -0.17935155 -0.016713947 -0.18424846 -0.029395832 0.12175539 0.12877348 -0.09052371 -0.1100989 0.13873668 -0.14622888 -0.15692048 0.0070037376 -0.027483715 -0.105231754 -0.023923034 0.0026835417 0.0032191619 -0.033527076 -0.26555768 0.14302166 0.10182472 -0.1673586 -0.11769502 0.2599826 0.08794638 -0.06368002 0.057130508 0.016807975 0.07198959 0.072995074 -0.20674415 0.101300545 0.14066207 -0.3796258 0.028618414 0.0393014 0.06756737 0.015883008 -0.032815307 -0.027129438 -0.11407104 0.049893435 -0.06309048 -0.34507048 -0.047347594 -0.13194448 0.11869048 0.08301548 0.070658356 0.12767996 -0.06185113 -0.03852045 -0.09088378 0.20465015 0.06838029 0.15966395 0.1689267 -0.14334996 0.09708042 -0.13458969 0.2489481 0.11523052 0.03971402 0.043553904 -0.017397579 0.025274431 0.17856802 -0.10877557 0.27073914 -0.14857101 -0.037115723 -0.020313207 0.028609756 -0.13019417 0.13002749 -0.07612992 0.0882888 0.047312886 0.014561117 -0.31407857
hurricane -0.1745925 -0.052072335 -0.10475285 0.23661941 -0.037420154 0.26543635 -0.10037618 0.15606186 -0.32591805 0.1310789 -0.006331271 0.17764609 0.028231239 -0.12354583 -0.27345848 -0.07468016 0.35352737 -0.14158529 0.31613734 -0.13514169 -0.16641608 -0.11142914 -0.13091183 -0.032975785 0.0060554687 -0.07891523 0.00031624926 0.05605179 0.26103935 -0.29354236 -0.32440674 -0.1904372 -0.08768723 -0.08264978 -0.09767613 0.015315666 0.023145786 -0.27927092 -0.3138713 0.2161452 0.101784416 -0.15170296 -0.20415689 0.2616299 0.07700366 -0.3530237 0.25939032 0.048651665 0.23827238 0.041886922 0.086017676 0.16773945 0.19324599 -0.31594905 0.08324354 0.05532156 0.01057456 -0.08495178 -0.13828033 -0.030154292 -0.017161183 0.11224411 0.040750008 -0.18905334 0.044217546 -0.03323409 0.10883114 0.078318626 0.021954607 -0.019265873 -0.056699775 0.092186086 -0.082629435 0.40926164 0.12427851 0.11886134 0.20053838 -0.18635584 0.0027774782 -0.072478175 0.21043964 0.17893541 0.0654317 0.015492184 -0.07925073 -0.18672885 0.06363975 -0.33898318 0.31363612 -0.10147021 0.0018557305 -0.044958446 0.12814811 -0.21990934 0.16672827 0.01104798 0.026268277 0.013375336 -0.014364165 -0.07449149
neo -0.1760726 -0.07237597 -0.1384456 0.3090406 -0.059587695 0.29230613 -0.16519304 0.14755507 -0.34368974 0.18512829 -0.08208254 0.18737265 0.042664535 -0.15039815 -0.36085156 -0.059372075 0.4288825 -0.15226047 0.38406888 -0.20164283 -0.14721285 -0.13600641 -0.10840666 -0.024986135 -0.013643033 -0.15727015 0.06134976 0.10057607 0.31281596 -0.3736829 -0.36054018 -0.22652212 -0.08738486 -0.082431346 -0.13867392 0.017110437 0.027948972 -0.37397853 -0.35443705 0.24473277 0.0926538 -0.14826792 -0.21601386 0.268925 0.045966994 -0.44722837 0.34990415 0.070981026 0.25921816 0.020323275 0.18514179 0.17117418 0.18239495 -0.27877957 0.12747578 0.06311452 0.024374183 -0.09577373 -0.17874295 0.0037708392 0.013970391 0.12952653 0.04003299 -0.13908777 0.07187801 0.0061849277 0.10914376 0.103480965 0.031815685 -0.061114147 -0.08359856 0.1731966 -0.09019713 0.47866958 0.13122907 0.13136671 0.1955031 -0.25851902 0.0028976796 -0.0413551 0.21998219 0.1624691 0.055537824 -0.045669228 -0.0913098 -0.26064852 0.038288448 -0.37519428 0.34323722 -0.08928098 0.027168518 -0.074197836 0.18071434 -0.28516117 0.16743803 0.06014693 0.055010516 -0.0013450647 -0.023371035 -0.010988012
xiom -0.22206254 0.09076563 -0.043655112 -0.044209406 0.25439095 0.20611349 0.3903114 0.18398833 -0.39261326 0.028790481 0.059545208 0.14858472 0.2339878 -0.04557948 0.09788235 0.045384545 0.28817338 -0.036873683 0.31125423 0.049542952 -0.37218076 -0.10501687 -0.2269004 -0.08703377 -0.04563167 0.11014912 -0.30358723 -0.12741825 0.14407079 0.012023161 -0.3564573 -0.29462656 -0.29243776 -0.020673288 0.08156154 0.07884763 0.1936784 -0.08344822 -0.24034503 0.16960941 0.023833897 -0.16923063 -0.3290024 0.26110682 0.13800117 -0.2705874 0.040494926 -0.055946417 0.32677305 0.17239489 -0.141115 0.23838644 0.38343066 -0.7017412 -0.17721044 0.020970013 -0.2824638 -0.16328712 -0.0132690035 -0.3484621 -0.12017844 0.1135951 0.08166157 -0.3866605 0.07751279 -0.17493936 0.17448312 -0.29372 -0.20216294 0.066865414 0.06532339 -0.13405244 -0.10590781 0.2643814 0.31778657 -0.10993777 0.22130248 0.24256127 -0.15712987 -0.23735854 0.28343156 0.46958125 0.20498182 0.38718453 -0.020903312 -4.847591e-05 -0.012755243 -0.54112697 0.3400263 -0.18662606 -0.27562723 0.1772196 -0.15546905 0.29904237 0.20110819 -0.27893507 -0.3592322 0.030889228 0.10584064 -0.26538497
bit -0.16016415 -0.04697588 -0.058519196 0.09500519 -0.04229941 0.23689398 -0.121682115 0.16294235 -0.2471703 0.026213022 0.25333372 0.13662235 -0.14787011 -0.055388983 -0.048205394 -0.14928056 0.07820187 -0.2884759 0.040659357 0.108800076 -0.18653598 -0.0017091746 -0.2287955 0.046188083 0.16735353 0.19367582 -0.14155385 -0.10020907 0.13456637 -0.11862711 -0.10679339 0.12749481 -0.022461733 -0.16980694 -0.00367758 -0.009645962 -0.03144704 0.023168253 -0.26241088 0.097640626 0.2054884 -0.20824295 -0.12519501 0.2736546 0.16093466 0.030999282 0.00500963 0.049540635 0.072390094 0.059061892 -0.28525278 0.10842981 0.167957 -0.3154732 -0.031298395 0.034374923 0.1257074 0.025293363 -0.044934835 -0.03261693 -0.15056492 0.0075392276 -0.05595032 -0.36741343 -0.060610488 -0.15857174 0.06436854 0.09205038 0.08650975 0.1539079 -0.06096914 -0.1123451 -0.087140545 0.27269927 0.07015338 0.16570716 0.20075016 -0.09953441 0.09087677 -0.1387261 0.21780719 0.12716731 0.050129782 0.03842391 -0.00859987 0.04472127 0.23972136 -0.07427941 0.2549806 -0.14400144 -0.054644834 -0.016236309 0.0701671 -0.111877166 0.124757566 -0.08561804 0.121579714 0.10498835 -0.030545581 -0.3594761
le -0.1549215 -0.024593037 -0.062296357 0.101503976 -0.059536062 0.24302986 -0.10172813 0.16461769 -0.23111795 0.014153212 0.27673125 0.13711576 -0.14480424 -0.065926015 0.0058499486 -0.13126838 0.05227602 -0.30908877 0.027993925 0.13687395 -0.18991017 0.0021765206 -0.24753913 0.09112395 0.1684367 0.21296231 -0.15169132 -0.08332307 0.10184474 -0.10091565 -0.074197665 0.1672998 -0.03583111 -0.17721711 0.0010106587 -0.030834315 -0.027601039 0.05937491 -0.24494785 0.10240951 0.22214182 -0.2239959 -0.15425237 0.26028657 0.20269746 0.031780515 -0.003151794 0.047178272 0.03264331 0.020958953 -0.3036691 0.12591705 0.18800768 -0.27260453 -0.057988394 0.013176432 0.11775595 0.032538243 -0.044217397 -0.07894611 -0.17408407 0.011703155 -0.04539209 -0.35216504 -0.07874266 -0.17915331 0.04004132 0.055018324 0.10974024 0.1630178 -0.07123044 -0.14875738 -0.08422312 0.28619164 0.08241153 0.14293541 0.21198688 -0.048162382 0.10239524 -0.14928097 0.2413493 0.11970064 0.061543766 0.036016263 -0.0025584253 0.060558423 0.22922434 -0.07313573 0.22816719 -0.14282975 -0.08755393 -0.0376749 0.099816136 -0.08678748 0.13462028 -0.09249679 0.1604376 0.14946571 -0.056647014 -0.4047823
fast -0.15505701 -0.031499103 -0.055090997 0.08484294 0.0018178802 0.19677521 -0.09307523 0.15951689 -0.2813864 0.017137498 0.23277801 0.14729308 -0.1083499 -0.018293848 -0.044966474 -0.15107945 0.07196642 -0.22310635 0.083052516 0.0901677 -0.20498334 -0.037136424 -0.20762475 0.010113047 0.12885974 0.1658904 -0.12989913 -0.10554349 0.13967474 -0.116916075 -0.15312773 0.07483143 -0.02878945 -0.116050564 -0.0070623127 -0.0074185785 0.0005961 -0.00028592226 -0.26561484 0.12679766 0.15679802 -0.19120522 -0.122605875 0.2538603 0.1315945 -0.011497342 0.0256975 0.016289307 0.046337854 0.05962947 -0.24903391 0.10153511 0.15261015 -0.3560829 0.0040519834 0.01961655 0.08073339 0.020461872 -0.047637057 -0.037704825 -0.1498138 0.043184258 -0.05718544 -0.34768218 -0.055591118 -0.15681532 0.09628976 0.08913835 0.07364704 0.14276494 -0.069082685 -0.09169645 -0.077596866 0.22516808 0.08015895 0.16052885 0.160087 -0.09366034 0.09843399 -0.14140299 0.23895767 0.13411194 0.044743095 0.06147851 -0.0024574501 0.06907693 0.19508171 -0.100525565 0.26268932 -0.14642337 -0.07079137 0.010005555 0.04539801 -0.09466191 0.12841855 -0.10190978 0.11207162 0.08928097 -0.0023046115 -0.3558863
tacky -0.13915388 -0.06264533 -0.08747345 0.10898585 -0.06014952 0.20516184 -0.14583883 0.16860126 -0.29445696 0.044177994 0.15736139 0.15269503 -0.112884335 -0.05778391 -0.104678705 -0.14718804 0.16102688 -0.19067697 0.13647865 0.061672773 -0.17788424 -0.06869559 -0.17139186 -0.023345483 0.15155864 0.106112935 -0.06456766 -0.04551458 0.15642938 -0.13610141 -0.17070553 0.0020005903 -0.009016697 -0.11052832 -0.04050017 0.013017334 0.001477735 -0.01993425 -0.2635635 0.13178171 0.1554145 -0.21170893 -0.1346002 0.24282955 0.09955353 -0.09587193 0.0534021 0.038854092 0.09469121 0.034967087 -0.17588633 0.120344535 0.15441945 -0.3118664 0.012893621 0.026184293 0.09359618 -0.029981457 -0.06639588 0.020877272 -0.1340123 0.051743504 -0.013349346 -0.2941684 -0.039099135 -0.10667508 0.10205885 0.12077341 0.11203632 0.11266432 -0.06998259 -0.030852413 -0.09343784 0.3031083 0.046168137 0.16839859 0.19770105 -0.15303849 0.097552575 -0.114169426 0.19457178 0.121728085 0.06309219 0.03958758 -0.0075646867 0.0123897465 0.1942681 -0.15818705 0.2844895 -0.14723837 -0.046093475 -0.022892063 0.08779448 -0.1749964 0.12448099 -0.024689313 0.08482933 0.058952276 0.00998682 -0.2725656
soft -0.17625812 -0.053439766 -0.07724761 0.07953511 0.00023686378 0.19146876 -0.047008857 0.16395867 -0.27400988 0.028027428 0.17612545 0.13452849 -0.05159388 -0.03217815 -0.049799606 -0.12806523 0.16961934 -0.17246631 0.10562923 0.10110817 -0.2485091 -0.06997631 -0.23635775 -0.021155613 0.08361137 0.15543163 -0.12161775 -0.07273872 0.120737575 -0.10438709 -0.17820746 -0.014983916 -0.0681094 -0.09968015 -0.009516736 0.043143712 0.020651106 -0.008631821 -0.24041706 0.10720254 0.15931062 -0.20656143 -0.13831607 0.2538255 0.12965891 -0.06023671 0.023288557 0.03255657 0.106112055 0.08654748 -0.20670424 0.13814366 0.21098673 -0.38399938 -0.054274786 0.022356423 0.058231458 -0.029247561 -0.026407713 -0.068391286 -0.14612767 0.062165383 -0.024576824 -0.32303208 -0.027942672 -0.13650684 0.07340081 0.0251775 0.030922838 0.14721788 -0.02220663 -0.06977484 -0.089049354 0.28293774 0.06574238 0.13803995 0.1971758 -0.07081953 0.039748937 -0.1474459 0.21225931 0.19148424 0.061668806 0.09520246 -0.010019479 0.0392918 0.18189025 -0.20442522 0.26087204 -0.17973405 -0.085611835 0.024369737 0.029333977 -0.08181672 0.12704365 -0.11028045 0.030849323 0.09244708 0.010060396 -0.30016667
backhand -0.15383272 -0.016608119 -0.024276063 0.026739249 0.031422295 0.15691717 -0.015281204 0.17265403 -0.30462667 0.015597451 0.1803342 0.12036149 -0.074310765 -0.03733494 -0.022742247 -0.12946829 0.10755639 -0.18868919 0.1082146 0.10188371 -0.2267766 -0.072035946 -0.2047723 -0.03045298 0.13347203 0.15790828 -0.14795254 -0.09273053 0.13045843 -0.07516347 -0.16857544 0.0083495835 -0.05508857 -0.089095145 0.0063493545 0.03052232 0.030198772 0.024240363 -0.244382 0.12072578 0.15219423 -0.217184 -0.14995873 0.25872028 0.12081656 -0.057878293 0.022359248 -0.00062718475 0.083962865 0.05856858 -0.21679035 0.12438884 0.19173717 -0.407651 -0.028171629 0.03169605 0.021889534 -0.026875196 -0.025922893 -0.037636537 -0.14922687 0.07990756 -0.047850884 -0.34987417 -0.025708998 -0.14547622 0.10793946 0.05238129 0.031131055 0.108859345 -0.05882564 -0.07294819 -0.0784932 0.23868206 0.09033929 0.11630139 0.18739606 -0.04408999 0.077011175 -0.14165862 0.24078557 0.1808055 0.0821373 0.11094727 -0.011522868 0.06949916 0.15568592 -0.17907591 0.30062944 -0.16750151 -0.13560443 0.03404267 0.01893095 -0.039505694 0.15066169 -0.11111873 0.030879408 0.05740203 0.021528574 -0.32526785
tried -0.16039424 -0.04625267 -0.08729892 0.10903425 0.03704407 0.17236887 -0.048428584 0.14623141 -0.32127228 0.056468632 0.07039952 0.15822096 -0.0035076304 -0.031792182 -0.14186235 -0.121299006 0.19889288 -0.12595321 0.23014174 -0.006412583 -0.18942912 -0.06547518 -0.15950413 -0.062889084 0.052594393 0.0724221 -0.080132976 -0.09209834 0.17114888 -0.16238189 -0.23409624 -0.120515056 -0.07818502 -0.06380311 -0.028502151 0.027578743 0.035495907 -0.117522456 -0.27098495 0.15523328 0.052626416 -0.14642933 -0.1637522 0.24907123 0.06193459 -0.16852683 0.119925946 0.005760217 0.14405024 0.10139607 -0.09409665 0.124000385 0.16663806 -0.41091993 0.034933783 0.04631008 -0.0046094563 -0.049484745 -0.061305635 -0.04333129 -0.08890899 0.072598636 -0.022818822 -0.29464045 -0.007083354 -0.08833172 0.13664079 0.034366783 0.008168756 0.07293496 -0.036257874 0.018279636 -0.104267195 0.2333121 0.104904085 0.091863744 0.16533965 -0.11892386 0.029758397 -0.13941571 0.2411532 0.17433943 0.061566357 0.09205326 -0.034836527 -0.03420527 0.122872755 -0.23384969 0.2785055 -0.13168168 -0.046572834 0.013142195 0.011950733 -0.108832926 0.13453388 -0.0773113 -0.019960882 0.009670097 0.036769956 -0.21732233
different -0.16680957 -0.060282405 -0.09211309 0.13902043 -0.03225225 0.20133848 -0.13247313 0.13771072 -0.2901257 0.035402562 0.16533267 0.168073 -0.094735265 -0.034914363 -0.10425739 -0.16889216 0.14775783 -0.20528474 0.16179831 0.047961734 -0.18513621 -0.037779808 -0.19375898 -0.0069328314 0.09565183 0.11630278 -0.096394174 -0.07564433 0.1352025 -0.15615775 -0.19521739 -0.0038871376 -0.04010856 -0.1154749 -0.033363275 -0.005987602 -0.010814383 -0.06367058 -0.2607643 0.14878291 0.12055569 -0.17992617 -0.14997831 0.28371465 0.09899864 -0.08556919 0.06324684 0.019080106 0.08277757 0.06531972 -0.17834198 0.109036356 0.1338152 -0.34890094 0.033597674 0.026060577 0.0758352 -0.012969155 -0.035444953 -0.0199357 -0.12246574 0.04307214 -0.04591628 -0.31773043 -0.039658383 -0.117730126 0.10638521 0.09038786 0.074870594 0.12776649 -0.06963509 -0.017850177 -0.08140949 0.2604578 0.059122615 0.16976333 0.16947636 -0.16150711 0.08223371 -0.14067833 0.23381078 0.13069767 0.04235665 0.031502828 -0.013594802 -0.0014719927 0.18760179 -0.1480172 0.2600193 -0.15546903 -0.021626271 -0.027616318 0.057709515 -0.16005701 0.12973855 -0.068218656 0.09602529 0.058845676 -0.016293664 -0.28347322
player -0.14045726 -0.034946844 -0.06433523 0.11687664 -0.019680427 0.17092901 -0.11157428 0.1713213 -0.2850883 0.016512018 0.16341983 0.16495082 -0.107118696 -0.029663447 -0.11344942 -0.16409953 0.10870429 -0.19070388 0.15177591 0.02962016 -0.17414008 -0.0420798 -0.18684599 -0.041876603 0.103199095 0.11433743 -0.08842458 -0.082558215 0.14839533 -0.15643905 -0.17301153 -0.015356658 -0.03613655 -0.11049427 -0.048682686 -0.01055814 -0.008302122 -0.04402126 -0.24620606 0.13903476 0.10126089 -0.18051676 -0.114544936 0.25877786 0.08761826 -0.09917759 0.06441485 0.005754497 0.069350004 0.06717534 -0.18234739 0.09580613 0.14522761 -0.37946984 0.0459446 0.039964404 0.06767554 -0.0014626054 -0.04627104 -0.010072704 -0.11331883 0.061632395 -0.05371933 -0.3164672 -0.04535432 -0.122211464 0.12047304 0.11379354 0.08681448 0.102123246 -0.062148087 -0.016767608 -0.086811475 0.21590471 0.04618692 0.17222063 0.1810736 -0.15140054 0.09780145 -0.13781679 0.24789134 0.12841456 0.046622932 0.050432634 -0.02838716 0.020604888 0.17403029 -0.12225581 0.28729925 -0.15992536 -0.03759357 -0.016259398 0.049361456 -0.14037134 0.11837125 -0.0708852 0.10024862 0.05227807 0.0037521364 -0.2838504
vega -0.27464777 0.086443365 -0.040722728 -0.027187662 0.29148456 0.21463764 0.44703317 0.20188913 -0.3607893 0.038332265 0.08444448 0.13057765 0.2599374 -0.09057258 0.1243696 0.052992012 0.31915218 -0.04515797 0.2784221 0.043519825 -0.37586144 -0.107662536 -0.26267242 -0.066215254 -0.01562959 0.1504533 -0.33647782 -0.09625488 0.15642487 0.04066625 -0.349336 -0.27907178 -0.3051154 -0.021492545 0.12068079 0.081057124 0.19509025 -0.062561564 -0.24493587 0.1954954 0.051601 -0.17267391 -0.3615827 0.26345226 0.21359448 -0.24555004 0.024747293 -0.07395761 0.34094754 0.18678571 -0.14885046 0.25024745 0.44977033 -0.7066174 -0.19414946 0.017774291 -0.27522805 -0.17940505 -0.010452358 -0.36550918 -0.14007914 0.1072057 0.116515234 -0.3951598 0.07830342 -0.21163279 0.20225781 -0.31808946 -0.19871227 0.047732964 0.081511185 -0.16313319 -0.08787162 0.27866608 0.33113098 -0.1412307 0.27736902 0.30701587 -0.16326213 -0.27048784 0.287354 0.51332515 0.23276697 0.42276534 -0.021863325 -0.032154683 -0.012004768 -0.56885546 0.3732359 -0.1897304 -0.31835702 0.19672467 -0.12762101 0.36835998 0.19521554 -0.28541788 -0.3880405 0.08292746 0.11119428 -0.27990538
've -0.157173 -0.035152707 -0.097980075 0.11389361 0.046647258 0.16190895 -0.06822574 0.15721126 -0.3176408 0.051964864 0.059207898 0.1677107 -0.014687261 -0.030341405 -0.16124061 -0.115383185 0.19807415 -0.118356906 0.2351493 -0.010234961 -0.19120458 -0.06519555 -0.15479285 -0.06989826 0.061563868 0.06408931 -0.09585764 -0.08302591 0.1719517 -0.15614565 -0.21825407 -0.12185438 -0.06044955 -0.06151023 -0.029987853 0.029602097 0.030106548 -0.12188472 -0.26604435 0.17052376 0.06037458 -0.15768515 -0.16908596 0.25891638 0.04993881 -0.16172644 0.11722023 0.01455761 0.14854874 0.10908774 -0.10821515 0.13521066 0.15835182 -0.428984 0.03560295 0.05035056 -0.010238265 -0.038835168 -0.049541403 -0.0359317 -0.086336955 0.0704598 -0.02905325 -0.3098863 -0.0022308012 -0.09708882 0.14513731 0.049788423 0.015352369 0.07335256 -0.035680667 0.028216718 -0.09738368 0.23449685 0.10197872 0.10468083 0.16815145 -0.13605684 0.037068218 -0.14904763 0.24291143 0.1688839 0.049374912 0.103027955 -0.037662968 -0.030004848 0.13031311 -0.23435017 0.2699071 -0.122809716 -0.048031293 0.006439085 -0.0022180306 -0.10774845 0.1262869 -0.074850954 -0.030364234 0.014409086 0.024275994 -0.2129894
best -0.1436774 -0.038246997 -0.07536356 0.11130062 0.0074617104 0.18232179 -0.105234936 0.15973343 -0.30551854 0.048205722 0.14108303 0.17035244 -0.06857846 -0.027168464 -0.112512566 -0.1504967 0.13932285 -0.17588621 0.17920007 0.024391113 -0.18771707 -0.05668758 -0.1667227 -0.042211168 0.08512878 0.10202111 -0.089292295 -0.09997567 0.16335994 -0.15724683 -0.20729315 -0.0380805 -0.04503122 -0.09250533 -0.04573257 -0.0019370555 0.026848992 -0.05709099 -0.27308065 0.13678077 0.09221107 -0.17214021 -0.14917055 0.26335418 0.071378805 -0.11101382 0.08381381 -0.00087004225 0.087077565 0.08591739 -0.17121494 0.117514215 0.13240989 -0.39230713 0.04197537 0.051969357 0.035725962 -0.016810197 -0.04716141 -0.03385987 -0.117760226 0.066441454 -0.036759093 -0.32664376 -0.04183967 -0.11247375 0.122574486 0.0888584 0.06187635 0.10376326 -0.062798135 -0.005213377 -0.090377256 0.22616452 0.07004048 0.14555089 0.16405249 -0.15261249 0.08887009 -0.13110498 0.23838724 0.13674195 0.029442577 0.07728991 -0.03675694 0.009681632 0.16080818 -0.1575263 0.285495 -0.13804841 -0.042570002 -0.00304089 0.039333068 -0.12627792 0.12392531 -0.07626013 0.06213093 0.020599082 0.01182725 -0.2756047
make -0.13446623 -0.04847868 -0.07850638 0.110131435 -0.034760118 0.21368517 -0.16288444 0.16294776 -0.26234818 0.027231017 0.19100314 0.16799434 -0.1341549 -0.03209903 -0.10006934 -0.16358487 0.10193136 -0.2315743 0.11419562 0.07227172 -0.1927988 -0.019460373 -0.19116804 -0.004879099 0.13572867 0.15449274 -0.08234167 -0.09855189 0.15073614 -0.141283 -0.14547394 0.042571384 0.0016935177 -0.1279658 -0.049704272 -0.01049025 -0.016644232 -0.03091237 -0.2720778 0.11956017 0.13832736 -0.18652369 -0.117159285 0.25995263 0.102360845 -0.048490472 0.045572832 0.030174183 0.062388018 0.06212568 -0.20185101 0.103837565 0.15123953 -0.322855 0.017143922 0.046443615 0.1031511 0.015865723 -0.051127557 -0.017865498 -0.13013026 0.028758487 -0.044455733 -0.33271432 -0.05240523 -0.1291411 0.10362803 0.12289737 0.11404531 0.1348934 -0.07747745 -0.041312326 -0.09075833 0.24218345 0.046387713 0.16652812 0.1826043 -0.15463309 0.114095226 -0.14316873 0.2256289 0.102241896 0.03816901 0.026102297 -0.018587679 0.040250577 0.20339775 -0.10212466 0.27214983 -0.13338438 -0.04372688 -0.034217406 0.06765561 -0.1616192 0.12691188 -0.059130818 0.1267469 0.07203063 -0.0097779995 -0.31645805
softer -0.16164835 -0.046070095 -0.08987837 0.12458901 -0.05584365 0.24811842 -0.08684762 0.13590582 -0.26044536 0.042641833 0.19091642 0.13928951 -0.087855384 -0.07814108 -0.044434473 -0.1130321 0.17121303 -0.25786927 0.10616367 0.09101377 -0.20349106 -0.029833134 -0.22903703 0.036657047 0.14477135 0.14064714 -0.10297299 -0.04595033 0.13895047 -0.13452367 -0.14754227 0.059838653 -0.048947114 -0.15730217 -0.018560972 0.0043445863 0.006444666 -0.026623273 -0.2518333 0.12771782 0.20176408 -0.20008148 -0.16958545 0.25760457 0.1666443 -0.06343652 0.05324933 0.0548903 0.12611887 0.04829513 -0.18372114 0.13589308 0.19799584 -0.29415601 -0.03848088 0.033248916 0.09692142 -0.0091490215 -0.04485858 -0.04426664 -0.13941213 0.04167248 -0.013042671 -0.3145717 -0.03346455 -0.12377226 0.05595588 0.03821807 0.07122879 0.13795634 -0.05511399 -0.0666404 -0.07131859 0.3342365 0.084645264 0.13397753 0.22412552 -0.07794816 0.04551264 -0.13094206 0.21173134 0.15386805 0.07543321 0.038529776 -0.022591356 -0.011612617 0.17260224 -0.1713136 0.27232608 -0.14627938 -0.07790426 -0.028368903 0.09734752 -0.11416817 0.14245783 -0.046537016 0.09710325 0.104775526 -0.032479137 -0.296077
harder -0.16342486 -0.053693645 -0.075501055 0.11021026 -0.039865993 0.22301294 -0.083660625 0.15134409 -0.24215229 0.009242899 0.22704709 0.13451867 -0.10711236 -0.0654946 -0.01302138 -0.12877387 0.13257919 -0.26611134 0.06291654 0.118299045 -0.20024595 -0.018095916 -0.24370605 0.0494328 0.15299971 0.18294327 -0.13211145 -0.05946346 0.11021853 -0.10911143 -0.11150648 0.09836121 -0.050768837 -0.16287284 0.0034694262 0.0007461282 -0.010234413 0.014712654 -0.24391034 0.11451638 0.20276916 -0.21441644 -0.14871095 0.2683995 0.16875497 -0.021291243 0.011108454 0.048006143 0.09144624 0.049443934 -0.22925827 0.122224614 0.19415018 -0.29647648 -0.04996931 0.010148501 0.107039005 -0.0013235136 -0.02952245 -0.055032626 -0.14667855 0.032089237 -0.029447984 -0.33694965 -0.043914758 -0.14700739 0.054002155 0.040469214 0.06991922 0.14363122 -0.048280347 -0.08974396 -0.06869223 0.2991164 0.06083916 0.15125696 0.20270444 -0.06630715 0.055090502 -0.14859119 0.2167019 0.15423577 0.06339344 0.04042536 -0.0042270957 0.023704272 0.19998549 -0.1273475 0.25804484 -0.16363966 -0.07875167 -0.017675692 0.08930456 -0.09533362 0.14236107 -0.07503661 0.113517135 0.114395805 -0.033185814 -0.34339118
little -0.1530331 -0.03372138 -0.05683813 0.109812394 -0.055802137 0.24528147 -0.12636398 0.15545677 -0.25924608 0.022721658 0.24361591 0.14144488 -0.123136476 -0.05221985 -0.050175555 -0.15603475 0.09907692 -0.2827354 0.07246016 0.10662543 -0.19255741 0.0149745215 -0.23298152 0.041866645 0.15436107 0.19055298 -0.12462829 -0.09520273 0.1377692 -0.122796334 -0.11359872 0.1143934 -0.017495725 -0.14596187 -0.008228717 0.0018466682 -0.016735177 0.0109156845 -0.27332774 0.1120787 0.19323638 -0.20757964 -0.13818456 0.26714656 0.14922948 0.0084692845 0.018423561 0.035019394 0.06395047 0.06167011 -0.25891614 0.108242385 0.16914594 -0.303823 -0.023331529 0.045345735 0.104766235 0.02535112 -0.034617603 -0.0361169 -0.14531206 0.014310102 -0.055775248 -0.3689434 -0.06063707 -0.15055016 0.06191623 0.07101985 0.09271952 0.14924078 -0.05794776 -0.0879832 -0.076113105 0.268541 0.063688725 0.16868444 0.20165142 -0.097669475 0.08287772 -0.14852262 0.21682231 0.124164924 0.047108598 0.026722588 0.009364106 0.051443543 0.22620916 -0.10781912 0.24612908 -0.14052947 -0.058445368 -0.031706322 0.06882191 -0.10748967 0.13690448 -0.07689246 0.12655279 0.10860109 -0.02903237 -0.36791977
playing -0.13871337 -0.063775584 -0.07533776 0.14820993 -0.024178369 0.17166191 -0.17077257 0.17121978 -0.31127754 0.030872498 0.13917343 0.18338086 -0.11461652 -0.03936397 -0.1702685 -0.17519923 0.13174197 -0.17488621 0.1756137 0.01859663 -0.17818767 -0.04436068 -0.1741028 -0.059735447 0.07901367 0.115913406 -0.05395422 -0.100744575 0.14950258 -0.188126 -0.17864655 -0.02560944 -0.0034403768 -0.09036327 -0.058817998 0.0041111065 -0.036817353 -0.09266769 -0.27296573 0.14337352 0.08658718 -0.18032214 -0.10258836 0.26786003 0.05523965 -0.1060121 0.09163681 0.016367694 0.06428507 0.07334198 -0.15637448 0.09277169 0.11866152 -0.3775102 0.076384455 0.04755998 0.08327654 0.009511871 -0.046482638 0.014669303 -0.08993122 0.061778303 -0.068401866 -0.3219836 -0.04584501 -0.11039506 0.12614709 0.1294536 0.081322305 0.12379435 -0.08953236 0.008479035 -0.09035181 0.21853444 0.042348314 0.18132941 0.16525011 -0.2098215 0.101438776 -0.114757285 0.24438573 0.10271694 0.029966058 0.031327795 -0.015466192 0.004443721 0.19175674 -0.1169494 0.2805645 -0.1442277 -0.00024162715 -0.01919711 0.02530553 -0.19340369 0.09510906 -0.062484767 0.1024861 0.038345195 0.01916986 -0.28362262
you -0.13576585 -0.054958165 -0.08390364 0.12495336 -0.023745794 0.19350873 -0.13781126 0.15295339 -0.28568918 0.043166503 0.13940477 0.1634865 -0.09529883 -0.037041347 -0.1317202 -0.1553819 0.13811634 -0.18627556 0.16027135 0.022386888 -0.17879258 -0.045546938 -0.16749242 -0.041038126 0.09765345 0.095686175 -0.06988949 -0.08591641 0.16075712 -0.1558004 -0.17624152 -0.023030663 -0.024223015 -0.10784542 -0.059033737 -0.022161752 -0.0008035082 -0.06174732 -0.27643314 0.1408082 0.09763024 -0.1709647 -0.13652155 0.26752335 0.08549483 -0.09064258 0.07331114 0.016177958 0.07732343 0.057456147 -0.17008847 0.11154214 0.14065911 -0.36214036 0.0325825 0.04555082 0.06432479 -0.000101417194 -0.052043576 -0.0076081716 -0.11105728 0.052451473 -0.044702593 -0.3141002 -0.05373404 -0.1035959 0.10835182 0.106055036 0.07275566 0.10767742 -0.063081145 -0.019526942 -0.09374022 0.23059033 0.05024608 0.16510986 0.17128749 -0.1628878 0.093371004 -0.13209653 0.24009538 0.10843245 0.04761423 0.029468518 -0.021965208 0.0051220036 0.17291823 -0.12800227 0.28597185 -0.13402611 -0.03333372 -0.026890036 0.04930199 -0.15005812 0.13107167 -0.061766632 0.08119247 0.039719418 0.00058647245 -0.26603898
great -0.16329218 -0.024058854 -0.044605277 0.082351774 0.005822281 0.1805766 -0.072574385 0.16396591 -0.2826205 0.018123014 0.2007519 0.15056129 -0.09662695 -0.03310885 -0.059412632 -0.15290642 0.0887807 -0.21228372 0.11667504 0.07342278 -0.19199188 -0.037013914 -0.1975481 -0.018208303 0.11720835 0.16336103 -0.11642351 -0.114893876 0.1350655 -0.12333999 -0.16652583 0.027562082 -0.03451649 -0.108597524 -0.017413903 0.0011121328 0.0025645369 0.0017050576 -0.2566493 0.12672555 0.13826591 -0.18872546 -0.12472994 0.26764166 0.10682376 -0.04473819 0.023813922 0.0063284263 0.06647039 0.06596182 -0.2276847 0.10964111 0.15792307 -0.38364404 0.005623388 0.028128142 0.060462948 0.0036864614 -0.04160106 -0.04710087 -0.13488767 0.04314353 -0.039862297 -0.3441198 -0.047735248 -0.1427611 0.104708694 0.072225444 0.06583405 0.12326875 -0.063581064 -0.07758544 -0.08691133 0.21833871 0.082448095 0.14524883 0.1773986 -0.101133645 0.0917102 -0.14748353 0.23448291 0.15073505 0.050395142 0.08113438 -0.015692884 0.049363464 0.17539367 -0.12724015 0.27280408 -0.14494906 -0.068709545 0.0038907733 0.029292775 -0.08272042 0.12264818 -0.10091765 0.07890534 0.061317705 0.001242856 -0.32612154
new -0.15214437 -0.05772082 -0.10342341 0.1354683 0.001412037 0.20243767 -0.12891188 0.14804724 -0.32412153 0.07617348 0.08766975 0.18112433 -0.05873375 -0.021824013 -0.1723623 -0.13359532 0.19028851 -0.13348942 0.22841103 -0.018369835 -0.18303908 -0.054030783 -0.15046622 -0.071378015 0.068536416 0.062317435 -0.043622643 -0.092985235 0.18162571 -0.18119553 -0.2280159 -0.09792951 -0.03876242 -0.08479055 -0.054579742 -0.02138393 0.04748786 -0.12164086 -0.28623095 0.17397481 0.045596935 -0.14378725 -0.14512669 0.25174975 0.05225704 -0.14807276 0.11303098 0.016448075 0.107336946 0.094039686 -0.11270473 0.12889023 0.13798343 -0.39998576 0.046439342 0.06916371 0.021584589 -0.029427549 -0.052219104 -0.0257126 -0.08523302 0.059221335 -0.03529341 -0.2922588 -0.028364863 -0.087881476 0.12294182 0.08932673 0.042187788 0.092363775 -0.06269815 0.025422376 -0.09440071 0.23466718 0.08003978 0.1193685 0.17319922 -0.18068995 0.08509753 -0.1286071 0.22418447 0.124157436 0.042128794 0.051462583 -0.037783455 -0.024070915 0.12709038 -0.19787559 0.2925045 -0.116238385 -0.0011333795 -0.025700802 0.011384879 -0.1599536 0.12154029 -0.06979784 0.022868218 0.0077704736 0.024851719 -0.20992845
table -0.15792722 -0.059568044 -0.0066627907 0.13403814 -0.07808511 0.15927064 -0.14555277 0.20484075 -0.21445943 -0.031315085 0.28553277 0.15575825 -0.17603673 -0.06488219 -0.09108607 -0.1811243 -0.006447048 -0.3252 0.021000013 0.08659134 -0.17505792 -0.008303525 -0.19827883 -0.01063888 0.119095676 0.2026286 -0.1165436 -0.1052771 0.08628412 -0.16314769 -0.077726334 0.12738632 0.011251272 -0.15090077 -0.05758712 -0.022826992 -0.09806536 0.0747478 -0.2443977 0.08043175 0.14575483 -0.22095968 -0.09551305 0.31791565 0.13927175 0.044496175 -0.009193965 -0.010416695 -0.028797114 0.03706582 -0.31823853 0.07693309 0.12502737 -0.34929636 0.044825763 0.04494024 0.16016796 0.06687556 0.0027874052 0.035313375 -0.119452834 0.054888222 -0.0706137 -0.38875958 -0.09552358 -0.17878994 0.12415019 0.20141052 0.1361473 0.14300826 -0.11316971 -0.041434143 -0.07371232 0.19074158 0.010802495 0.2397128 0.16630435 -0.21223223 0.16503125 -0.14761668 0.28696203 0.07834363 -0.0003606095 0.019106204 -0.027579915 0.13171132 0.19870447 0.0033074515 0.2741926 -0.13350941 -0.044368092 -0.035948638 0.07168717 -0.22816864 0.12257779 -0.04590563 0.24752945 0.08239365 -0.015983017 -0.39260933
blue -0.18042752 -0.119484484 -0.17613049 0.37318522 -0.10474521 0.36627144 -0.18677856 0.089110956 -0.30790457 0.1966243 -0.067400135 0.2009262 0.04535705 -0.18488549 -0.36180207 -0.054966655 0.5183081 -0.20891093 0.3602584 -0.18129973 -0.15946512 -0.1285163 -0.16155975 0.036015995 0.0064185085 -0.20624422 0.06852043 0.16026053 0.30715933 -0.41492718 -0.33810818 -0.2120672 -0.10438311 -0.14814776 -0.14191474 -0.036040764 0.009647564 -0.38995346 -0.34022358 0.24053235 0.10410531 -0.12912776 -0.287334 0.28975993 0.110321246 -0.42318583 0.3705676 0.123742364 0.333304 0.03516231 0.21679468 0.19263677 0.2132915 -0.19809136 0.12008342 0.061555132 0.07026227 -0.101188526 -0.17682022 -0.009587863 0.020314656 0.11827644 0.04072126 -0.112241626 0.085485466 0.048783083 0.06306757 0.09023561 0.06582258 -0.022442997 -0.037149638 0.183172 -0.08341702 0.5439423 0.08455615 0.14347012 0.24196686 -0.2409002 -0.03807482 -0.05274282 0.21703614 0.150508 0.031088894 -0.1067424 -0.08250813 -0.32001886 0.02241677 -0.38349038 0.35005298 -0.10701996 0.055623196 -0.1029188 0.25293812 -0.30183902 0.1725856 0.11386218 0.08966036 0.07483026 -0.06896628 0.04825787
mx-p -0.16300806 -0.021023024 -0.07232217 0.08527521 0.029280206 0.20132948 -0.03339061 0.15577093 -0.30089664 0.024181897 0.1797525 0.14093214 -0.059978228 -0.036596615 -0.06793736 -0.12514226 0.11833102 -0.20059124 0.13427116 0.05652692 -0.19757633 -0.023392763 -0.20559387 -0.015966428 0.11314749 0.1453928 -0.14692704 -0.13033587 0.12636724 -0.11316934 -0.18243414 -0.0035448668 -0.06046349 -0.11883934 -0.007132243 0.009644531 0.029203802 -0.04104345 -0.25518706 0.14911541 0.11409207 -0.16834524 -0.16232842 0.25897706 0.12153717 -0.050099377 0.030368932 0.014619336 0.114656225 0.0988727 -0.21864356 0.13749535 0.17301068 -0.3978901 -0.0024128705 0.04783402 0.04159952 -0.0042648753 -0.037305634 -0.059503175 -0.10370219 0.04248354 -0.045149315 -0.3735461 -0.022672737 -0.13106014 0.09812468 0.03642982 0.024748068 0.11270158 -0.04972796 -0.062311728 -0.09313466 0.20293295 0.08990189 0.10405737 0.19252312 -0.07812419 0.0644217 -0.14546056 0.2388836 0.1642572 0.057201803 0.10341494 -0.01798757 0.022534361 0.15740804 -0.16521251 0.2702911 -0.12756734 -0.06675012 0.025672136 0.0003187253 -0.06247581 0.1315853 -0.122746445 0.021912072 0.057133928 -0.0017248879 -0.30868518
omega -0.25508592 0.08042726 -0.050264962 -0.038091782 0.28100142 0.20766397 0.4129506 0.19879174 -0.34872767 0.029061541 0.06935646 0.13062157 0.22909197 -0.06624745 0.12059297 0.051657207 0.2967584 -0.043515205 0.26620427 0.05831276 -0.38393217 -0.1031046 -0.2481154 -0.07290586 -0.019758496 0.15845984 -0.32706496 -0.11111303 0.15535757 0.043098174 -0.3287635 -0.25678223 -0.28809628 -0.016795982 0.1101154 0.06632657 0.1976644 -0.055556014 -0.23385423 0.18526806 0.028028185 -0.16569507 -0.34250113 0.26733825 0.19324276 -0.23105465 0.02388115 -0.06539688 0.30555984 0.17721963 -0.15106656 0.25115126 0.42039362 -0.691265 -0.17906055 0.018489007 -0.27439174 -0.1671721 0.005579364 -0.35865864 -0.14224416 0.09300367 0.10031694 -0.39069748 0.0751383 -0.20287515 0.19701174 -0.3061556 -0.1804703 0.05538907 0.067127995 -0.15403341 -0.09486407 0.2466584 0.31413314 -0.11871632 0.24859658 0.29165533 -0.15597256 -0.25895506 0.28838512 0.47463042 0.20979147 0.40616956 -0.020701237 -0.0006164619 -0.0019518242 -0.5321557 0.35905623 -0.1781172 -0.3037381 0.18850817 -0.14935836 0.3520683 0.18160832 -0.2862922 -0.35309392 0.06952494 0.09899019 -0.2776433
topsheet -0.14655542 -0.062420804 -0.108797446 0.14879003 -0.07206555 0.2619789 -0.13939647 0.12688221 -0.26464066 0.05264713 0.16125444 0.16159892 -0.10304337 -0.07968863 -0.10669321 -0.12252647 0.2036122 -0.2448368 0.1185666 0.070579864 -0.19839384 -0.028832015 -0.20198712 0.03698175 0.12528689 0.094295464 -0.07029985 -0.017960936 0.14432053 -0.16341917 -0.1603825 0.027563293 -0.039096173 -0.13761356 -0.026789755 -0.021396775 -0.0029386901 -0.05230381 -0.26700005 0.14161968 0.16548584 -0.18137297 -0.18288007 0.24919356 0.1529575 -0.08774864 0.07301072 0.05898282 0.120974705 0.054261953 -0.15017702 0.13385385 0.16758597 -0.25060132 -0.023978338 0.05175146 0.10535507 -0.007629451 -0.0593024 -0.015848583 -0.124694355 0.037480373 -0.00792489 -0.29347253 -0.025482235 -0.09579143 0.055404127 0.08089096 0.09369764 0.13956067 -0.050697118 -0.0148309935 -0.07704191 0.33542904 0.051719442 0.1626289 0.20960335 -0.13090974 0.064159036 -0.12766528 0.19160539 0.12876424 0.057956617 0.0038258876 -0.009997867 -0.015220622 0.17176157 -0.17663229 0.2675985 -0.154445 -0.03592218 -0.048272137 0.11492315 -0.16748847 0.13327774 -0.026780324 0.12097249 0.1167967 -0.030513965 -0.25662467
long -0.12811224 -0.054166477 -0.0899333 0.13134676 -0.01347838 0.17589886 -0.14275727 0.17541894 -0.27784637 0.034800753 0.12756786 0.17538513 -0.10214192 -0.0466966 -0.15446734 -0.14561059 0.138817 -0.18770456 0.17283362 0.032402836 -0.18539567 -0.036761627 -0.17895727 -0.041847687 0.09573764 0.10945658 -0.07400354 -0.084927574 0.16319056 -0.17041224 -0.1621088 -0.028722372 -0.0067769256 -0.097523205 -0.057550207 0.0061046802 -0.027344871 -0.08952551 -0.27591285 0.15213539 0.09435068 -0.18391676 -0.122018166 0.26515865 0.07008647 -0.09216907 0.10079542 0.033447683 0.07116443 0.06322254 -0.15150161 0.1176193 0.13110046 -0.35061255 0.05425258 0.04511112 0.07699258 0.0071997107 -0.049034536 -0.01561728 -0.08190763 0.049048975 -0.050313246 -0.32271817 -0.036469284 -0.10681382 0.11614318 0.124698505 0.08404576 0.11682617 -0.074635856 -0.0052596084 -0.095730685 0.21945745 0.05433336 0.16958041 0.17415185 -0.18008727 0.09476645 -0.12411571 0.22850955 0.10647364 0.02598901 0.04208516 -0.008663092 0.017914679 0.18496649 -0.14483236 0.26804763 -0.124765515 -0.017918345 -0.027245618 0.037395984 -0.18303093 0.10869533 -0.04823861 0.09856266 0.046181783 0.008802383 -0.25525853
maybe -0.15708095 -0.02886098 -0.07921624 0.10438067 0.02163126 0.20958029 -0.030229345 0.14664869 -0.31408468 0.04123224 0.13095671 0.15820214 -0.042288665 -0.03315803 -0.09305618 -0.12076221 0.17475657 -0.16582981 0.1795708 0.0294608 -0.20884421 -0.04881813 -0.18680395 -0.039715987 0.073129155 0.10292611 -0.11262712 -0.08734103 0.16195856 -0.12720911 -0.19823256 -0.04862416 -0.06828064 -0.08861182 -0.02240906 0.0037606356 0.04978167 -0.069159105 -0.2653585 0.14108016 0.086077884 -0.15812853 -0.1704461 0.2620605 0.09977935 -0.10716758 0.065858215 0.013130694 0.13102834 0.09812348 -0.1613462 0.13212317 0.17272675 -0.40593627 -0.015723612 0.052114747 0.008927369 -0.037422527 -0.044489216 -0.08372178 -0.122421674 0.050581437 -0.0071011824 -0.3286201 -0.024107797 -0.12443573 0.123223655 0.015908606 0.013256416 0.107018486 -0.029071761 -0.039585203 -0.095595844 0.23785743 0.111153014 0.112900935 0.18548466 -0.09405809 0.046007548 -0.15211548 0.23094104 0.17136623 0.05562604 0.10647097 -0.021426763 -0.00600003 0.13112834 -0.20571057 0.28432205 -0.1503796 -0.060170565 0.021309864 0.014124896 -0.065407075 0.1380599 -0.09686944 -0.008560419 0.05004138 0.016440528 -0.27853373
game -0.12544613 -0.046293132 -0.012290812 0.109505534 -0.07404192 0.16659886 -0.13005367 0.18092033 -0.22624731 0.020910554 0.29563344 0.12574877 -0.18363932 -0.030053915 -0.056921307 -0.19306903 -0.011880336 -0.30164477 0.039271105 0.13440013 -0.21459739 -0.008964516 -0.20725915 0.01614039 0.1431621 0.25071982 -0.11958369 -0.09837703 0.1036876 -0.115488425 -0.077102706 0.11439493 0.02101012 -0.13411804 -0.016940162 -0.010489808 -0.080015115 0.052741285 -0.23596515 0.1017039 0.15388393 -0.21553127 -0.06320717 0.2907253 0.14130397 0.040965505 0.002100973 -0.007645887 -0.012274463 0.05780547 -0.31335497 0.070814855 0.13438292 -0.36816365 0.033762287 0.045965552 0.15154205 0.055576097 -0.038492773 -0.014780186 -0.15550654 0.03271335 -0.074232034 -0.39191908 -0.1077331 -0.1537069 0.10593896 0.17024988 0.1265689 0.15769587 -0.08362265 -0.10180607 -0.05626556 0.20230213 0.016797831 0.24520479 0.15207925 -0.19513416 0.14816073 -0.15833762 0.28949368 0.078808114 0.015813325 0.01907048 -0.026446715 0.15985413 0.21119083 0.0042355317 0.26288566 -0.16479893 -0.038302395 -0.00851112 0.05215098 -0.20524304 0.10925362 -0.11125032 0.25401285 0.11920853 -0.00960455 -0.42952693
technique -0.1470232 -0.05533335 -0.06433273 0.10114519 -0.042978063 0.19487956 -0.15430406 0.16934355 -0.27145854 0.01379728 0.21646287 0.1480607 -0.14947665 -0.0367168 -0.089793846 -0.18348937 0.080919854 -0.21598162 0.09256942 0.0668235 -0.18956462 -0.049805544 -0.1847857 -0.024029158 0.13858055 0.15370646 -0.065931834 -0.09961268 0.1408994 -0.1453152 -0.14019357 0.06045733 0.005188928 -0.12030172 -0.053476553 -0.0017206388 -0.03340591 0.0013909066 -0.25499687 0.12874143 0.13662502 -0.20310053 -0.092457205 0.25638422 0.089966156 -0.034590136 0.03714769 0.014589405 0.037574966 0.048922196 -0.22236386 0.089685015 0.13028616 -0.3447436 0.02986739 0.035222806 0.10992342 0.0044929776 -0.03638383 0.012665196 -0.14181481 0.05112669 -0.053440377 -0.3216343 -0.075217925 -0.13697396 0.1004869 0.14085771 0.10909135 0.14853826 -0.087228075 -0.0636212 -0.09383861 0.22605842 0.048749264 0.18667363 0.17071258 -0.1619652 0.12512252 -0.13229442 0.21763682 0.094566524 0.052417435 0.044318717 -0.019743595 0.062095445 0.2139866 -0.077293746 0.29185304 -0.15877168 -0.044285282 -0.023417272 0.05931726 -0.16815679 0.12249589 -0.056845933 0.12444157 0.066130936 0.004161067 -0.33653596
version -0.17396718 -0.081342295 -0.1413528 0.27671993 -0.06750994 0.285237 -0.14872868 0.14180684 -0.327699 0.1406704 0.0058847996 0.17584531 -0.0034888037 -0.12046732 -0.26462835 -0.09148074 0.35988522 -0.19235322 0.29423836 -0.12670326 -0.1623707 -0.082716055 -0.1774533 0.015583392 0.021590576 -0.063565925 0.014919518 0.06373393 0.2420372 -0.29748806 -0.26553214 -0.12869097 -0.08125754 -0.12203158 -0.10880491 -0.012504929 0.007526616 -0.2791023 -0.30399016 0.19930132 0.09717667 -0.13712285 -0.20558615 0.26973376 0.10729449 -0.30708304 0.25375944 0.088635646 0.22035529 0.043191392 0.07092476 0.16362448 0.1851336 -0.27506328 0.07955388 0.048191387 0.059878424 -0.064456925 -0.123702146 -0.019929167 -0.03096637 0.062072325 0.017373314 -0.17475258 0.03778965 -0.011460604 0.0952103 0.07261574 0.06521502 0.015155315 -0.07603842 0.089068934 -0.103471056 0.4186465 0.08092513 0.12470667 0.21912327 -0.20313855 -0.0062325993 -0.10744136 0.22750169 0.13606139 0.06531684 -0.032917667 -0.056732494 -0.20097873 0.077395126 -0.27678618 0.30848867 -0.10788707 0.024227345 -0.07355905 0.18338476 -0.25807434 0.14359993 0.035031013 0.080806985 0.045167748 -0.029952927 -0.083858885
dhs -0.17864096 -0.044765335 -0.10171495 0.2087376 0.004330677 0.26044947 -0.07655879 0.12825096 -0.3270071 0.1431282 -0.01255096 0.17424667 0.053283874 -0.093756974 -0.27028674 -0.07957554 0.3501315 -0.12991355 0.33441442 -0.15022826 -0.14859238 -0.11398464 -0.117044576 -0.039163228 -0.021649282 -0.077432014 -0.01281323 0.021195374 0.26358062 -0.29688466 -0.33621094 -0.21369484 -0.099464774 -0.06672466 -0.0871049 0.020146536 0.041531168 -0.28643858 -0.30966502 0.22282866 0.07251315 -0.11820816 -0.2206136 0.26981974 0.047134914 -0.34808382 0.26727515 0.033401083 0.24376878 0.066892356 0.07881777 0.17186442 0.1830419 -0.34474328 0.09306857 0.06684161 -0.0029506336 -0.081969835 -0.13341163 -0.02559997 -0.0117685795 0.10107075 0.024131611 -0.19421898 0.030833052 -0.024233479 0.12424214 0.06128439 -0.009815383 -0.026364556 -0.037049346 0.09802729 -0.080829345 0.3671605 0.14660157 0.111974575 0.17149124 -0.18964887 -0.009060182 -0.08383318 0.23044753 0.18499093 0.044272106 0.026493061 -0.07536387 -0.17912549 0.04119684 -0.32995158 0.32651547 -0.09509309 -0.0016926583 -0.01152716 0.09029693 -0.19227804 0.17038694 -0.01490503 -0.010061214 -0.0049481555 0.0021826718 -0.08618848
power -0.17555608 -0.03796966 -0.052705567 0.09942012 -0.038770355 0.23646429 -0.102229536 0.15930587 -0.22771221 0.0071522756 0.2372955 0.14272897 -0.119155616 -0.07112716 -0.027255548 -0.1285038 0.10819662 -0.26391524 0.039041154 0.10786096 -0.21264155 -0.042112123 -0.23538013 0.05206105 0.14083485 0.17706828 -0.14000677 -0.055181652 0.11805566 -0.12263561 -0.12682596 0.12320305 -0.030733246 -0.16877973 -0.007790793 -0.017534355 -0.03499429 0.021626845 -0.25220254 0.100240916 0.20563368 -0.21988484 -0.16085522 0.26338866 0.18789662 -0.004615254 0.009965813 0.038576536 0.050972518 0.025927043 -0.24324928 0.12128331 0.18850347 -0.2832047 -0.037608642 0.020131102 0.11478376 0.009897386 -0.044142153 -0.05154435 -0.15970472 0.029711222 -0.031792857 -0.33944118 -0.050942644 -0.15900876 0.060747407 0.091374144 0.09594434 0.13755225 -0.0752294 -0.11596959 -0.08226914 0.29966164 0.06796275 0.15476851 0.2029674 -0.07004198 0.09764452 -0.1561596 0.2213457 0.1506292 0.070733495 0.03479826 0.0036540804 0.04464252 0.20333903 -0.116718024 0.26631668 -0.13738054 -0.09826712 -0.015567717 0.09147813 -0.10794216 0.13782133 -0.08488152 0.13637966 0.1347867 -0.04344117 -0.34272087
played -0.16267805 -0.0495065 -0.09367777 0.11928876 0.026043296 0.1787501 -0.078797616 0.1551768 -0.3069825 0.05374498 0.083758146 0.17594136 -0.041286103 -0.045504883 -0.14073691 -0.12565093 0.18604706 -0.15495168 0.20101449 0.0037011127 -0.19826713 -0.062830396 -0.16797145 -0.056812763 0.061865587 0.087547414 -0.08617836 -0.08648647 0.15894678 -0.16282366 -0.2080393 -0.086593404 -0.06559432 -0.07729202 -0.029734777 0.023249883 0.025680318 -0.11059053 -0.27660552 0.15697876 0.067908034 -0.16534677 -0.16847953 0.26006567 0.081153296 -0.15759651 0.099022195 0.0086481115 0.12368312 0.086391814 -0.12671447 0.13948165 0.1551597 -0.4096252 0.028348368 0.044348422 0.014960017 -0.029244903 -0.059743833 -0.0587168 -0.08438191 0.08373812 -0.030164286 -0.3171903 -0.015925873 -0.103214756 0.13370924 0.06632811 0.038060177 0.08995217 -0.040386543 0.006652454 -0.098557636 0.24619897 0.08536996 0.116588145 0.17581056 -0.13405733 0.04699532 -0.13317679 0.24673122 0.16239229 0.05297465 0.08084292 -0.031071797 -0.015607541 0.14103444 -0.2162369 0.27060354 -0.13848138 -0.051519636 0.0030488395 0.019394774 -0.117695674 0.12305814 -0.07684912 0.023123307 0.038128596 0.032418296 -0.24588932
short -0.11809509 -0.027664851 -0.030539488 0.08522068 -0.06235916 0.17639983 -0.13783023 0.18792634 -0.2320217 0.022607554 0.28763312 0.12499512 -0.15084858 -0.034121867 -0.050499957 -0.18267037 -0.0033037937 -0.30021092 0.019154383 0.14282635 -0.21896844 -0.027736228 -0.23219325 0.0751154 0.17259109 0.2855051 -0.12669802 -0.12775768 0.09210641 -0.08881003 -0.06969344 0.16321118 0.01331459 -0.1290721 -0.026525032 -0.00054909487 -0.04769759 0.08259354 -0.24189457 0.085394554 0.20539802 -0.19942069 -0.062360045 0.26635927 0.15642786 0.08104643 -0.0049824067 0.017774438 -0.06059553 0.06954598 -0.3407157 0.10359939 0.15755197 -0.35526383 0.010727888 0.04476852 0.12834354 0.0634249 -0.005555454 -0.0009705821 -0.20249748 0.009780462 -0.07658547 -0.40686586 -0.13265309 -0.18284942 0.10684051 0.13578653 0.11300923 0.15770766 -0.09859301 -0.11892455 -0.071906075 0.1826261 0.036452215 0.23518476 0.15443482 -0.15336096 0.17024823 -0.15815791 0.27534354 0.10132733 0.0113682235 -0.00064723473 -0.014653653 0.17255197 0.25166222 0.0014964755 0.23280378 -0.1592122 -0.053195037 -0.011849614 0.0741206 -0.18930359 0.101926684 -0.1271136 0.25720716 0.12769152 -0.039560515 -0.451551
sure -0.1417943 -0.050172336 -0.09073267 0.11129864 0.0019304667 0.17696017 -0.1208592 0.15160196 -0.29782242 0.0373292 0.118604794 0.18024662 -0.0884048 -0.020931909 -0.13880548 -0.15951055 0.14185415 -0.18395673 0.18808058 0.024298104 -0.17993532 -0.029043578 -0.16933215 -0.056657705 0.09040478 0.10315176 -0.067827925 -0.10217546 0.15748158 -0.16373558 -0.18728824 -0.037177205 -0.033917747 -0.091110006 -0.042569704 -0.004024526 0.016048029 -0.07473929 -0.26681474 0.15415263 0.06842403 -0.14167932 -0.15125749 0.26383945 0.07403948 -0.101315185 0.095160805 0.010020909 0.08396594 0.09433906 -0.16510633 0.108950086 0.13351081 -0.3821283 0.050381515 0.044884413 0.044834785 -0.008741404 -0.042205885 -0.022750288 -0.107432604 0.04700377 -0.04249576 -0.3248926 -0.042724535 -0.102597795 0.13297161 0.09832998 0.06081065 0.10720541 -0.06303245 -0.005621659 -0.106581844 0.20377798 0.07374846 0.14217791 0.15379335 -0.16911456 0.08689529 -0.14068098 0.23546551 0.11195867 0.025849055 0.06074393 -0.013009981 0.0010319507 0.1574758 -0.15006258 0.28453672 -0.1380325 -0.010516275 -0.0057146954 0.026991235 -0.13307454 0.1211553 -0.06760569 0.05825802 0.024129817 0.01619558 -0.25890157
stroke -0.15171118 -0.057695474 -0.057519786 0.07742624 -0.051073853 0.21598876 -0.17270896 0.17392236 -0.25502267 0.010857856 0.26465496 0.15393159 -0.17668892 -0.041989114 -0.050586063 -0.17877796 0.057925284 -0.26870447 0.027038047 0.13467668 -0.19035739 -0.037729222 -0.20792766 0.03102688 0.18487121 0.18999812 -0.11288806 -0.09054243 0.123147495 -0.12338114 -0.10795519 0.13989061 0.012346357 -0.15573932 -0.021624703 -0.029152066 -0.039009437 0.060775474 -0.27288032 0.105448395 0.18259029 -0.21054935 -0.13455397 0.2505664 0.15519235 0.022693211 0.009690196 0.024827264 0.014474781 0.018988043 -0.26612458 0.10238139 0.13857268 -0.2923712 -0.0029425498 0.02270203 0.13969418 0.0238174 -0.03601772 -0.004450018 -0.16562416 0.041427534 -0.06360542 -0.35575992 -0.085609 -0.15099983 0.08230839 0.15995724 0.14298055 0.15120567 -0.09653587 -0.0982405 -0.087145425 0.24270244 0.026875015 0.18544391 0.1722555 -0.14039949 0.14031936 -0.14800316 0.232124 0.092314295 0.036936913 0.01574927 -0.00457111 0.09183763 0.22526483 -0.041864894 0.2832153 -0.14734328 -0.07632017 -0.036519673 0.095155306 -0.14144637 0.13938498 -0.0748322 0.19510952 0.087737024 -0.016334418 -0.36955833
quite -0.1501061 -0.030139472 -0.04274226 0.09053648 0.0029932254 0.19505155 -0.09348847 0.1709174 -0.28561762 0.018611498 0.22263242 0.15633915 -0.1118367 -0.03727317 -0.0515169 -0.14027296 0.081153974 -0.23264036 0.10148307 0.08190299 -0.18049869 -0.012790467 -0.19741577 0.0119076595 0.12453876 0.1683127 -0.13575166 -0.12194774 0.11896856 -0.1256536 -0.14653982 0.0651535 -0.036359806 -0.13268167 -0.0026103766 0.011605109 -0.026670055 -0.0038278191 -0.24711192 0.12484707 0.15713257 -0.2032729 -0.114768185 0.2550269 0.122606516 -0.03480043 0.030004984 0.012275872 0.05562206 0.069118656 -0.2578108 0.099696636 0.1608523 -0.35192066 0.0015259016 0.021878608 0.08341811 0.01855049 -0.03354864 -0.03700757 -0.125489 0.04671682 -0.05918143 -0.35086626 -0.05203508 -0.1502639 0.10550737 0.08270737 0.05849668 0.13598202 -0.07580428 -0.07998379 -0.08106632 0.22657816 0.07113741 0.15053314 0.16483483 -0.095748246 0.09759189 -0.13537239 0.24840093 0.13846108 0.05258347 0.056141715 0.0016576302 0.047024295 0.21135174 -0.11838022 0.26035416 -0.14104131 -0.057257794 -0.009871757 0.036516886 -0.094566636 0.11711985 -0.10636658 0.09771833 0.085568056 -0.0051126494 -0.3453794
faster -0.16822751 -0.041507393 -0.06412284 0.1192079 -0.034012765 0.21990614 -0.087325305 0.14305003 -0.2690983 0.03599757 0.20327796 0.1462772 -0.09633219 -0.07170837 -0.061769757 -0.13768755 0.13467951 -0.24995738 0.09382722 0.05654629 -0.17842455 -0.018165046 -0.2093118 0.039524436 0.11769287 0.14373848 -0.10831774 -0.0658744 0.14603724 -0.15183973 -0.15462415 0.06086362 -0.045374576 -0.13276601 -0.007864873 0.009664156 -0.020143589 -0.041476097 -0.2661071 0.12822343 0.17911449 -0.2029498 -0.13985047 0.26150486 0.14739391 -0.060579132 0.04127775 0.034230564 0.10053328 0.05571837 -0.19745006 0.114026405 0.17595273 -0.3126029 -0.01125696 0.022411523 0.08508321 0.002127943 -0.05862798 -0.043734595 -0.12420928 0.041298218 -0.031280216 -0.32977042 -0.032684762 -0.12657508 0.07267285 0.0732507 0.07271823 0.11338205 -0.05629018 -0.06574943 -0.06888269 0.28405115 0.07666538 0.14671448 0.1837008 -0.09281076 0.062041394 -0.12965946 0.23549879 0.15090796 0.059483502 0.037455734 -0.010096889 -0.0013376437 0.17942119 -0.15003268 0.2652519 -0.13729869 -0.04998182 -0.016950583 0.07039672 -0.104812294 0.13265568 -0.06620429 0.08954865 0.09659556 -0.032553673 -0.31012493
work -0.1477765 -0.037979387 -0.06664498 0.1108999 -0.01881052 0.1956423 -0.104318745 0.16430838 -0.3003682 0.038247332 0.17958713 0.15460971 -0.09298868 -0.04617204 -0.0907465 -0.14603117 0.12491582 -0.20438851 0.13418569 0.04548612 -0.19729435 -0.04637448 -0.1784788 -0.027392365 0.113860115 0.11610141 -0.090074584 -0.08452983 0.15283346 -0.14994268 -0.18446189 -0.0038014732 -0.032804184 -0.10486569 -0.031436656 0.00053827517 0.007791496 -0.042208925 -0.26849443 0.13247366 0.12114133 -0.1793541 -0.14355557 0.2563072 0.10259936 -0.08241127 0.06525959 0.0030290426 0.08368461 0.06256305 -0.17866538 0.11458802 0.14625128 -0.3651829 0.023844497 0.040182505 0.05937351 -0.017590309 -0.053446975 -0.010685811 -0.11327554 0.05699859 -0.049961213 -0.33609697 -0.032277763 -0.12258079 0.12114564 0.09792693 0.0683235 0.11232486 -0.07254681 -0.034875467 -0.091885746 0.23814493 0.074856974 0.15783414 0.17910387 -0.13289785 0.09201844 -0.13649617 0.24660058 0.13819708 0.046378706 0.05927178 -0.02496828 0.030902825 0.15862143 -0.13800046 0.2926786 -0.14178936 -0.048066575 -0.0004890517 0.045364987 -0.12560697 0.13764992 -0.07221472 0.091700695 0.050703544 0.0018039277 -0.290489
sheet -0.16407056 -0.062228967 -0.092219085 0.15896808 -0.026046155 0.23047139 -0.11293207 0.14671241 -0.28427273 0.05903664 0.09796933 0.16397862 -0.07091977 -0.053476863 -0.14713119 -0.13389657 0.20926629 -0.17376426 0.21343638 0.019188851 -0.19705953 -0.060651794 -0.1771993 -0.03624866 0.0884148 0.06915865 -0.065289035 -0.055345513 0.17358711 -0.18214904 -0.20438936 -0.04158256 -0.039543543 -0.099698305 -0.049452268 -0.018172817 0.010326083 -0.11993821 -0.2597029 0.15160023 0.09245812 -0.1528668 -0.18082404 0.25359002 0.103103064 -0.1483534 0.12515086 0.031538762 0.12940288 0.075580426 -0.12716098 0.14306444 0.14912906 -0.3271252 0.029108122 0.033875193 0.06121848 -0.027920552 -0.06390358 -0.03912559 -0.09178428 0.055047777 -0.030208264 -0.281002 -0.018738473 -0.092276566 0.10163999 0.0836492 0.058493335 0.085100755 -0.06794764 0.00638398 -0.095092945 0.2831512 0.07944675 0.12457959 0.19669612 -0.14976206 0.065507896 -0.13803983 0.21985891 0.12547302 0.04462183 0.04750923 -0.021880243 -0.033902153 0.14921504 -0.19491297 0.27623543 -0.11267336 -0.03113542 -0.02241403 0.07269476 -0.16041242 0.12621504 -0.03994091 0.042865843 0.052910503 -0.0023334154 -0.2386681
thanks -0.14262728 -0.03258671 -0.07579564 0.111209735 0.016392875 0.17105524 -0.09740699 0.14801116 -0.30970445 0.042496502 0.11343574 0.17040376 -0.05230336 -0.0082319705 -0.13654177 -0.14446834 0.15664998 -0.15910013 0.19044603 0.000917538 -0.18166365 -0.059148587 -0.1569329 -0.059068285 0.06847766 0.09113843 -0.07980512 -0.11056509 0.15583614 -0.151784 -0.19644661 -0.060202613 -0.0539777 -0.07779236 -0.045862813 -0.010657471 0.03125966 -0.09084481 -0.26464614 0.13877518 0.0526942 -0.14422151 -0.14349665 0.25621152 0.062325638 -0.11545606 0.085932925 0.0101705 0.09818651 0.08854564 -0.15143302 0.11705588 0.13845289 -0.4006574 0.050614316 0.04450182 0.023831023 -0.019347513 -0.04310777 -0.03637422 -0.09514229 0.05218766 -0.036466785 -0.31208706 -0.025891501 -0.106741704 0.1300798 0.067764245 0.036684368 0.099352635 -0.048280008 -0.004900281 -0.10491901 0.19624402 0.0870496 0.114867695 0.14876372 -0.14724112 0.061758753 -0.13304128 0.24652876 0.13391216 0.036531433 0.07428101 -0.026604604 -0.0034675994 0.13902019 -0.16248845 0.276273 -0.119950354 -0.029124474 -7.0678816e-06 0.014776405 -0.1161796 0.12965342 -0.0798067 0.024544096 0.020036848 0.029331109 -0.24756694
tapatalk -0.073504195 0.0068486305 -0.012687348 -0.14347462 0.08794356 0.19414504 -0.11300898 0.07686133 -0.5409339 0.21909226 0.07478456 0.17992407 -0.22259745 0.027521932 -0.18414588 -0.055688556 0.1714322 -0.17775199 0.21624225 0.14682053 -0.09312086 -0.15203369 -0.083167836 -0.09343363 0.22770388 -0.16559897 -0.10907241 -0.11317956 0.21800295 -0.14560361 -0.23739785 -0.087283656 -0.08178613 -0.15144552 -0.00092109333 -0.1839507 0.18388973 -0.031211536 -0.36985353 0.24587665 -0.10954469 -0.18396312 -0.35929877 0.19038393 0.13666452 -0.008321163 0.24290101 -0.04834283 0.13196155 0.077465914 -0.088374205 0.12567662 -0.016261924 -0.4164673 0.09931974 0.2647373 -0.052962292 -0.10718941 -0.14174803 0.18589656 -0.1215364 0.10808821 -0.124274984 -0.3901274 -0.0726898 0.06533672 0.20331056 0.25121886 0.011044801 0.025225062 0.0761612 0.048708033 -0.12063198 0.10196279 -0.0076307403 0.11531668 0.16386501 -0.1781377 0.12349828 -0.10714128 0.17361988 0.003454537 0.05870926 -0.030900802 0.04774406 0.011183658 0.06761463 -0.13021342 0.43136495 -0.12628798 -0.13581644 0.12050067 0.0126279695 0.040027127 0.21140307 -0.116685875 0.08715886 -0.07523655 0.18787406 -0.04952397
thing -0.15165009 -0.054822154 -0.07337035 0.10285418 -0.013807784 0.19819753 -0.14768259 0.16131222 -0.3107221 0.046862606 0.15038323 0.17301364 -0.105325595 -0.021431522 -0.13763833 -0.15253863 0.13552941 -0.18641646 0.15612417 0.04048789 -0.18454184 -0.03698243 -0.16809635 -0.031641573 0.11706928 0.104263954 -0.08232886 -0.09904763 0.1647793 -0.16091403 -0.17889404 0.0026434548 -0.03523229 -0.1055145 -0.04643961 -0.017643446 0.019798279 -0.06353453 -0.2752073 0.13351677 0.086068325 -0.17025682 -0.14967644 0.2421339 0.08153677 -0.07252465 0.07036296 0.021045404 0.073169135 0.08106742 -0.18437791 0.11929628 0.12029454 -0.35365203 0.03413374 0.05106337 0.060326684 -0.003964982 -0.05457646 -0.014210184 -0.11028028 0.055628072 -0.04120937 -0.33880132 -0.05171602 -0.11606379 0.11230102 0.12333391 0.071927 0.12518132 -0.071236275 -0.016874513 -0.10317994 0.22042601 0.051077608 0.16015428 0.16996348 -0.1770644 0.107049845 -0.13906696 0.2292888 0.113427304 0.025866218 0.042886756 -0.0159942 0.027366977 0.17737988 -0.13825913 0.28862837 -0.12738004 -0.021172104 -0.02087333 0.05074887 -0.13893594 0.12428402 -0.06455712 0.08140402 0.030964792 0.007626871 -0.27212974
might -0.14559501 -0.044149365 -0.076414086 0.09841713 0.0076401723 0.19672915 -0.10615838 0.14594898 -0.31234384 0.049581002 0.13594434 0.16551958 -0.08651667 -0.022230811 -0.10417678 -0.14729467 0.13519856 -0.18058892 0.1452643 0.038236696 -0.19276021 -0.04306097 -0.18406339 -0.04053433 0.10691049 0.119217694 -0.082320705 -0.10629786 0.15057154 -0.13873723 -0.17417537 -0.010722675 -0.04366132 -0.09842854 -0.03503587 -0.001365073 0.030781444 -0.04931678 -0.25760528 0.14523318 0.08443795 -0.160832 -0.14070755 0.26235786 0.081595145 -0.0794166 0.061631195 0.005423449 0.085327476 0.08318818 -0.17861806 0.11683076 0.13273345 -0.38014895 0.010513768 0.05606793 0.05165767 -0.008597206 -0.037067577 -0.02258567 -0.12339203 0.046070147 -0.05164718 -0.33734354 -0.052686725 -0.10594932 0.11121351 0.08553345 0.047333043 0.119888164 -0.043291617 -0.03516859 -0.09059352 0.21828651 0.0619789 0.14751175 0.17669314 -0.14422846 0.08507094 -0.14243907 0.23345919 0.1284118 0.047987424 0.04883083 -0.01571271 0.025405034 0.1553043 -0.13676998 0.2823465 -0.14514753 -0.039414007 -0.016123844 0.025803909 -0.113462925 0.1301188 -0.07988822 0.05118306 0.028777307 0.010395901 -0.2773186
difference -0.15503183 -0.0765097 -0.1130383 0.21311061 -0.0445486 0.23564027 -0.14980333 0.13529457 -0.294402 0.075064704 0.08946964 0.18064135 -0.061823506 -0.061259247 -0.19263719 -0.13950244 0.23392616 -0.19732435 0.2223484 -0.03444539 -0.173248 -0.04305956 -0.19134274 -0.027073536 0.06575125 0.03280511 -0.029031286 -0.039606187 0.1709442 -0.23551776 -0.20192084 -0.060614064 -0.046578575 -0.12770331 -0.07168375 -0.02180417 0.003635935 -0.16011943 -0.26793727 0.17482434 0.088449955 -0.14668272 -0.16662039 0.27979416 0.09418607 -0.18515015 0.15693536 0.048544344 0.13189846 0.07275113 -0.07442184 0.12705377 0.15158752 -0.32681847 0.06088875 0.045154262 0.08462462 -0.023024844 -0.07291505 -0.014448261 -0.07180547 0.04333839 -0.031045996 -0.2576294 -0.011561386 -0.068914875 0.10267241 0.09232794 0.08190342 0.07060519 -0.07619466 0.033175323 -0.09494323 0.31764746 0.059731778 0.13615745 0.19718534 -0.17952335 0.051697865 -0.12907438 0.24639302 0.111467764 0.043583322 0.0052927667 -0.04300101 -0.09326372 0.1322013 -0.19270442 0.2823877 -0.13154832 -0.0037179482 -0.047886223 0.098501965 -0.21692435 0.1290156 -0.00997214 0.078324705 0.05673688 -0.020494962 -0.19091833
loop -0.1564631 -0.033718836 -0.032267377 0.06781282 -0.044895597 0.18879865 -0.1237501 0.18306999 -0.24407627 0.017307153 0.257628 0.13875313 -0.14638318 -0.036213644 -0.054563396 -0.1652649 0.03259115 -0.27429658 0.02819273 0.1265138 -0.18761604 -0.03370958 -0.21083347 0.021242814 0.15556492 0.20593357 -0.12372136 -0.103542425 0.10690203 -0.12673312 -0.10235144 0.11998682 -0.006965349 -0.14991035 -0.023041032 -0.029792117 -0.03861718 0.053579453 -0.24891478 0.09851475 0.1810076 -0.21658923 -0.121009 0.2766986 0.16238102 0.04141116 0.012560942 0.02296571 0.014583466 0.05183984 -0.28878266 0.08762326 0.15690976 -0.32661334 0.007337697 0.03210228 0.11642254 0.03952601 -0.028351732 -0.011469453 -0.15602113 0.04521858 -0.071415 -0.37497035 -0.07415345 -0.15470196 0.08544496 0.1487612 0.111180395 0.1429896 -0.08253719 -0.08880336 -0.09048973 0.22099788 0.040671945 0.1753878 0.1908269 -0.11640476 0.12558602 -0.14918666 0.23923285 0.10286187 0.03491349 0.036611 0.0033061719 0.09992261 0.20133607 -0.03702351 0.27769688 -0.14560954 -0.08470452 -0.011092278 0.073758714 -0.14058256 0.13710456 -0.092573985 0.18654841 0.09376216 -0.024623984 -0.3757508
people -0.14687715 -0.035218243 -0.07064692 0.10743567 0.011855666 0.18176396 -0.10789618 0.15319087 -0.2930985 0.03051208 0.14211206 0.16714343 -0.08059983 -0.024013236 -0.11961124 -0.15355359 0.12260445 -0.17807837 0.17514819 0.020548385 -0.18192834 -0.046869285 -0.17080474 -0.048835397 0.08364928 0.100659415 -0.087513246 -0.099975176 0.14832382 -0.15957728 -0.18101569 -0.041795366 -0.02917532 -0.08767865 -0.037230074 0.005047717 0.012955106 -0.072798155 -0.2663864 0.14480436 0.08709141 -0.15214191 -0.13069989 0.26700628 0.077432185 -0.10023564 0.07109698 0.008668252 0.09547932 0.08469992 -0.17396244 0.11682566 0.1496342 -0.39536944 0.042164143 0.041095078 0.046024475 0.003532266 -0.042002294 -0.030600965 -0.1074831 0.05253085 -0.055124614 -0.32484457 -0.04009894 -0.11225857 0.13335851 0.09004316 0.053428173 0.092025705 -0.053907856 -0.013966326 -0.08881086 0.20766504 0.076234676 0.13359317 0.16851081 -0.14216182 0.08726228 -0.15402986 0.24344988 0.12628141 0.0481786 0.06948188 -0.02364841 0.0072073783 0.15248793 -0.13765274 0.27306503 -0.12931865 -0.030568186 -0.0048803277 0.028312705 -0.12427516 0.126129 -0.079197176 0.049080852 0.04073476 0.0049956013 -0.27130854
forehand -0.17462389 -0.01595248 -0.04449196 0.046144363 0.02950781 0.16775812 -0.022993157 0.17961685 -0.32221922 0.053263705 0.15855892 0.12863816 -0.06315052 -0.046888273 -0.062849574 -0.124726705 0.13915814 -0.16973254 0.13624479 0.07465108 -0.20147428 -0.0942032 -0.18813041 -0.037833817 0.12523353 0.10928904 -0.13715202 -0.08368983 0.15294765 -0.1067935 -0.21217453 -0.03044763 -0.06696359 -0.10200678 -0.0049047964 0.020088088 0.026837153 -0.008143731 -0.2633071 0.14485139 0.12329411 -0.20227458 -0.16197 0.2587734 0.11570891 -0.09916778 0.044514928 -0.01098075 0.1143198 0.06405676 -0.18374562 0.11878465 0.17265187 -0.3995046 -0.010875875 0.04072292 0.02402868 -0.03391572 -0.053337783 -0.041257355 -0.13800934 0.09082293 -0.02618752 -0.33503345 -0.023000577 -0.12437132 0.121091455 0.062143236 0.031460717 0.08205825 -0.048865344 -0.056813933 -0.075373344 0.24656902 0.08710832 0.115192175 0.19326852 -0.054420386 0.06389528 -0.13912208 0.22617158 0.17662562 0.09038604 0.108140625 -0.005052832 0.030940289 0.13527219 -0.19661017 0.30362025 -0.14491148 -0.12103112 0.04884366 0.019919343 -0.0330567 0.14758873 -0.101086386 0.017601073 0.040742125 0.033503845 -0.28656372
